digraph Tree {
node [shape=box, style="filled", color="black", fontname="helvetica"] ;
edge [fontname="helvetica"] ;
0 [label="age <= 59.5\ngini = 0.079\nsamples = 511\nvalue = [490, 21]\nclass = 1", fillcolor="#e68641"] ;
1 [label="avg_glucose_level <= 64.27\ngini = 0.026\nsamples = 373\nvalue = [368, 5]\nclass = 1", fillcolor="#e5833c"] ;
0 -> 1 [labeldistance=2.5, labelangle=45, headlabel="True"] ;
2 [label="avg_glucose_level <= 64.075\ngini = 0.191\nsamples = 28\nvalue = [25, 3]\nclass = 1", fillcolor="#e89051"] ;
1 -> 2 ;
3 [label="id <= 36594.0\ngini = 0.137\nsamples = 27\nvalue = [25, 2]\nclass = 1", fillcolor="#e78b49"] ;
2 -> 3 ;
4 [label="gini = 0.0\nsamples = 1\nvalue = [0, 1]\nclass = 0", fillcolor="#399de5"] ;
3 -> 4 ;
5 [label="age <= 48.0\ngini = 0.074\nsamples = 26\nvalue = [25, 1]\nclass = 1", fillcolor="#e68641"] ;
3 -> 5 ;
6 [label="gini = 0.0\nsamples = 20\nvalue = [20, 0]\nclass = 1", fillcolor="#e58139"] ;
5 -> 6 ;
7 [label="age <= 49.5\ngini = 0.278\nsamples = 6\nvalue = [5, 1]\nclass = 1", fillcolor="#ea9a61"] ;
5 -> 7 ;
8 [label="gini = 0.0\nsamples = 1\nvalue = [0, 1]\nclass = 0", fillcolor="#399de5"] ;
7 -> 8 ;
9 [label="gini = 0.0\nsamples = 5\nvalue = [5, 0]\nclass = 1", fillcolor="#e58139"] ;
7 -> 9 ;
10 [label="gini = 0.0\nsamples = 1\nvalue = [0, 1]\nclass = 0", fillcolor="#399de5"] ;
2 -> 10 ;
11 [label="avg_glucose_level <= 223.73\ngini = 0.012\nsamples = 345\nvalue = [343, 2]\nclass = 1", fillcolor="#e5823a"] ;
1 -> 11 ;
12 [label="age <= 56.5\ngini = 0.006\nsamples = 337\nvalue = [336, 1]\nclass = 1", fillcolor="#e5813a"] ;
11 -> 12 ;
13 [label="gini = 0.0\nsamples = 314\nvalue = [314, 0]\nclass = 1", fillcolor="#e58139"] ;
12 -> 13 ;
14 [label="work_type <= 1.0\ngini = 0.083\nsamples = 23\nvalue = [22, 1]\nclass = 1", fillcolor="#e68742"] ;
12 -> 14 ;
15 [label="id <= 33180.0\ngini = 0.32\nsamples = 5\nvalue = [4, 1]\nclass = 1", fillcolor="#eca06a"] ;
14 -> 15 ;
16 [label="gini = 0.0\nsamples = 1\nvalue = [0, 1]\nclass = 0", fillcolor="#399de5"] ;
15 -> 16 ;
17 [label="gini = 0.0\nsamples = 4\nvalue = [4, 0]\nclass = 1", fillcolor="#e58139"] ;
15 -> 17 ;
18 [label="gini = 0.0\nsamples = 18\nvalue = [18, 0]\nclass = 1", fillcolor="#e58139"] ;
14 -> 18 ;
19 [label="avg_glucose_level <= 225.57\ngini = 0.219\nsamples = 8\nvalue = [7, 1]\nclass = 1", fillcolor="#e99355"] ;
11 -> 19 ;
20 [label="gini = 0.0\nsamples = 1\nvalue = [0, 1]\nclass = 0", fillcolor="#399de5"] ;
19 -> 20 ;
21 [label="gini = 0.0\nsamples = 7\nvalue = [7, 0]\nclass = 1", fillcolor="#e58139"] ;
19 -> 21 ;
22 [label="bmi <= 380.0\ngini = 0.205\nsamples = 138\nvalue = [122, 16]\nclass = 1", fillcolor="#e89253"] ;
0 -> 22 [labeldistance=2.5, labelangle=-45, headlabel="False"] ;
23 [label="age <= 60.5\ngini = 0.161\nsamples = 125\nvalue = [114, 11]\nclass = 1", fillcolor="#e88d4c"] ;
22 -> 23 ;
24 [label="bmi <= 132.5\ngini = 0.5\nsamples = 6\nvalue = [3, 3]\nclass = 1", fillcolor="#ffffff"] ;
23 -> 24 ;
25 [label="gini = 0.0\nsamples = 2\nvalue = [2, 0]\nclass = 1", fillcolor="#e58139"] ;
24 -> 25 ;
26 [label="avg_glucose_level <= 76.585\ngini = 0.375\nsamples = 4\nvalue = [1, 3]\nclass = 0", fillcolor="#7bbeee"] ;
24 -> 26 ;
27 [label="gini = 0.0\nsamples = 1\nvalue = [1, 0]\nclass = 1", fillcolor="#e58139"] ;
26 -> 27 ;
28 [label="gini = 0.0\nsamples = 3\nvalue = [0, 3]\nclass = 0", fillcolor="#399de5"] ;
26 -> 28 ;
29 [label="age <= 66.5\ngini = 0.125\nsamples = 119\nvalue = [111, 8]\nclass = 1", fillcolor="#e78a47"] ;
23 -> 29 ;
30 [label="gini = 0.0\nsamples = 33\nvalue = [33, 0]\nclass = 1", fillcolor="#e58139"] ;
29 -> 30 ;
31 [label="id <= 31032.5\ngini = 0.169\nsamples = 86\nvalue = [78, 8]\nclass = 1", fillcolor="#e88e4d"] ;
29 -> 31 ;
32 [label="id <= 4803.0\ngini = 0.056\nsamples = 35\nvalue = [34, 1]\nclass = 1", fillcolor="#e6853f"] ;
31 -> 32 ;
33 [label="id <= 4138.0\ngini = 0.198\nsamples = 9\nvalue = [8, 1]\nclass = 1", fillcolor="#e89152"] ;
32 -> 33 ;
34 [label="gini = 0.0\nsamples = 8\nvalue = [8, 0]\nclass = 1", fillcolor="#e58139"] ;
33 -> 34 ;
35 [label="gini = 0.0\nsamples = 1\nvalue = [0, 1]\nclass = 0", fillcolor="#399de5"] ;
33 -> 35 ;
36 [label="gini = 0.0\nsamples = 26\nvalue = [26, 0]\nclass = 1", fillcolor="#e58139"] ;
32 -> 36 ;
37 [label="id <= 31156.5\ngini = 0.237\nsamples = 51\nvalue = [44, 7]\nclass = 1", fillcolor="#e99558"] ;
31 -> 37 ;
38 [label="gini = 0.0\nsamples = 1\nvalue = [0, 1]\nclass = 0", fillcolor="#399de5"] ;
37 -> 38 ;
39 [label="age <= 68.5\ngini = 0.211\nsamples = 50\nvalue = [44, 6]\nclass = 1", fillcolor="#e99254"] ;
37 -> 39 ;
40 [label="id <= 68580.0\ngini = 0.48\nsamples = 5\nvalue = [3, 2]\nclass = 1", fillcolor="#f6d5bd"] ;
39 -> 40 ;
41 [label="id <= 39197.5\ngini = 0.444\nsamples = 3\nvalue = [1, 2]\nclass = 0", fillcolor="#9ccef2"] ;
40 -> 41 ;
42 [label="gini = 0.0\nsamples = 1\nvalue = [1, 0]\nclass = 1", fillcolor="#e58139"] ;
41 -> 42 ;
43 [label="gini = 0.0\nsamples = 2\nvalue = [0, 2]\nclass = 0", fillcolor="#399de5"] ;
41 -> 43 ;
44 [label="gini = 0.0\nsamples = 2\nvalue = [2, 0]\nclass = 1", fillcolor="#e58139"] ;
40 -> 44 ;
45 [label="bmi <= 138.5\ngini = 0.162\nsamples = 45\nvalue = [41, 4]\nclass = 1", fillcolor="#e88d4c"] ;
39 -> 45 ;
46 [label="bmi <= 116.5\ngini = 0.346\nsamples = 9\nvalue = [7, 2]\nclass = 1", fillcolor="#eca572"] ;
45 -> 46 ;
47 [label="gini = 0.0\nsamples = 7\nvalue = [7, 0]\nclass = 1", fillcolor="#e58139"] ;
46 -> 47 ;
48 [label="gini = 0.0\nsamples = 2\nvalue = [0, 2]\nclass = 0", fillcolor="#399de5"] ;
46 -> 48 ;
49 [label="avg_glucose_level <= 230.67\ngini = 0.105\nsamples = 36\nvalue = [34, 2]\nclass = 1", fillcolor="#e78845"] ;
45 -> 49 ;
50 [label="id <= 63378.0\ngini = 0.057\nsamples = 34\nvalue = [33, 1]\nclass = 1", fillcolor="#e6853f"] ;
49 -> 50 ;
51 [label="gini = 0.0\nsamples = 26\nvalue = [26, 0]\nclass = 1", fillcolor="#e58139"] ;
50 -> 51 ;
52 [label="id <= 64625.0\ngini = 0.219\nsamples = 8\nvalue = [7, 1]\nclass = 1", fillcolor="#e99355"] ;
50 -> 52 ;
53 [label="gini = 0.0\nsamples = 1\nvalue = [0, 1]\nclass = 0", fillcolor="#399de5"] ;
52 -> 53 ;
54 [label="gini = 0.0\nsamples = 7\nvalue = [7, 0]\nclass = 1", fillcolor="#e58139"] ;
52 -> 54 ;
55 [label="id <= 45081.5\ngini = 0.5\nsamples = 2\nvalue = [1, 1]\nclass = 1", fillcolor="#ffffff"] ;
49 -> 55 ;
56 [label="gini = 0.0\nsamples = 1\nvalue = [1, 0]\nclass = 1", fillcolor="#e58139"] ;
55 -> 56 ;
57 [label="gini = 0.0\nsamples = 1\nvalue = [0, 1]\nclass = 0", fillcolor="#399de5"] ;
55 -> 57 ;
58 [label="smoking_status <= 1.5\ngini = 0.473\nsamples = 13\nvalue = [8, 5]\nclass = 1", fillcolor="#f5d0b5"] ;
22 -> 58 ;
59 [label="avg_glucose_level <= 148.845\ngini = 0.469\nsamples = 8\nvalue = [3, 5]\nclass = 0", fillcolor="#b0d8f5"] ;
58 -> 59 ;
60 [label="gini = 0.0\nsamples = 4\nvalue = [0, 4]\nclass = 0", fillcolor="#399de5"] ;
59 -> 60 ;
61 [label="avg_glucose_level <= 215.965\ngini = 0.375\nsamples = 4\nvalue = [3, 1]\nclass = 1", fillcolor="#eeab7b"] ;
59 -> 61 ;
62 [label="gini = 0.0\nsamples = 2\nvalue = [2, 0]\nclass = 1", fillcolor="#e58139"] ;
61 -> 62 ;
63 [label="avg_glucose_level <= 221.215\ngini = 0.5\nsamples = 2\nvalue = [1, 1]\nclass = 1", fillcolor="#ffffff"] ;
61 -> 63 ;
64 [label="gini = 0.0\nsamples = 1\nvalue = [0, 1]\nclass = 0", fillcolor="#399de5"] ;
63 -> 64 ;
65 [label="gini = 0.0\nsamples = 1\nvalue = [1, 0]\nclass = 1", fillcolor="#e58139"] ;
63 -> 65 ;
66 [label="gini = 0.0\nsamples = 5\nvalue = [5, 0]\nclass = 1", fillcolor="#e58139"] ;
58 -> 66 ;
}