digraph Tree {
node [shape=box, style="filled", color="black", fontname="helvetica"] ;
edge [fontname="helvetica"] ;
0 [label="hypertension <= 0.202\ngini = 0.077\nsamples = 2454\nvalue = [2356, 98]\nclass = 1", fillcolor="#e68641"] ;
1 [label="heart_disease <= 0.354\ngini = 0.057\nsamples = 2227\nvalue = [2162, 65]\nclass = 1", fillcolor="#e6853f"] ;
0 -> 1 [labeldistance=2.5, labelangle=45, headlabel="True"] ;
2 [label="ever_married <= 0.504\ngini = 0.043\nsamples = 2127\nvalue = [2080, 47]\nclass = 1", fillcolor="#e6843d"] ;
1 -> 2 ;
3 [label="age <= 71.842\ngini = 0.015\nsamples = 820\nvalue = [814, 6]\nclass = 1", fillcolor="#e5823a"] ;
2 -> 3 ;
4 [label="work_type <= 0.573\ngini = 0.01\nsamples = 800\nvalue = [796, 4]\nclass = 1", fillcolor="#e5823a"] ;
3 -> 4 ;
5 [label="gender <= 0.488\ngini = 0.04\nsamples = 49\nvalue = [48, 1]\nclass = 1", fillcolor="#e6843d"] ;
4 -> 5 ;
6 [label="gini = 0.0\nsamples = 32\nvalue = [32, 0]\nclass = 1", fillcolor="#e58139"] ;
5 -> 6 ;
7 [label="Residence_type <= 0.436\ngini = 0.111\nsamples = 17\nvalue = [16, 1]\nclass = 1", fillcolor="#e78945"] ;
5 -> 7 ;
8 [label="gini = 0.0\nsamples = 9\nvalue = [9, 0]\nclass = 1", fillcolor="#e58139"] ;
7 -> 8 ;
9 [label="id <= 20361.483\ngini = 0.219\nsamples = 8\nvalue = [7, 1]\nclass = 1", fillcolor="#e99355"] ;
7 -> 9 ;
10 [label="avg_glucose_level <= 93.378\ngini = 0.5\nsamples = 2\nvalue = [1, 1]\nclass = 1", fillcolor="#ffffff"] ;
9 -> 10 ;
11 [label="gini = 0.0\nsamples = 1\nvalue = [0, 1]\nclass = 0", fillcolor="#399de5"] ;
10 -> 11 ;
12 [label="gini = 0.0\nsamples = 1\nvalue = [1, 0]\nclass = 1", fillcolor="#e58139"] ;
10 -> 12 ;
13 [label="gini = 0.0\nsamples = 6\nvalue = [6, 0]\nclass = 1", fillcolor="#e58139"] ;
9 -> 13 ;
14 [label="age <= 52.102\ngini = 0.008\nsamples = 751\nvalue = [748, 3]\nclass = 1", fillcolor="#e5823a"] ;
4 -> 14 ;
15 [label="Residence_type <= 0.524\ngini = 0.003\nsamples = 728\nvalue = [727, 1]\nclass = 1", fillcolor="#e58139"] ;
14 -> 15 ;
16 [label="gini = 0.0\nsamples = 352\nvalue = [352, 0]\nclass = 1", fillcolor="#e58139"] ;
15 -> 16 ;
17 [label="smoking_status <= 0.97\ngini = 0.005\nsamples = 376\nvalue = [375, 1]\nclass = 1", fillcolor="#e5813a"] ;
15 -> 17 ;
18 [label="gini = 0.0\nsamples = 214\nvalue = [214, 0]\nclass = 1", fillcolor="#e58139"] ;
17 -> 18 ;
19 [label="age <= 36.919\ngini = 0.012\nsamples = 162\nvalue = [161, 1]\nclass = 1", fillcolor="#e5823a"] ;
17 -> 19 ;
20 [label="gini = 0.0\nsamples = 148\nvalue = [148, 0]\nclass = 1", fillcolor="#e58139"] ;
19 -> 20 ;
21 [label="work_type <= 2.351\ngini = 0.133\nsamples = 14\nvalue = [13, 1]\nclass = 1", fillcolor="#e78b48"] ;
19 -> 21 ;
22 [label="gini = 0.0\nsamples = 11\nvalue = [11, 0]\nclass = 1", fillcolor="#e58139"] ;
21 -> 22 ;
23 [label="avg_glucose_level <= 82.529\ngini = 0.444\nsamples = 3\nvalue = [2, 1]\nclass = 1", fillcolor="#f2c09c"] ;
21 -> 23 ;
24 [label="avg_glucose_level <= 73.603\ngini = 0.5\nsamples = 2\nvalue = [1, 1]\nclass = 1", fillcolor="#ffffff"] ;
23 -> 24 ;
25 [label="gini = 0.0\nsamples = 1\nvalue = [1, 0]\nclass = 1", fillcolor="#e58139"] ;
24 -> 25 ;
26 [label="gini = 0.0\nsamples = 1\nvalue = [0, 1]\nclass = 0", fillcolor="#399de5"] ;
24 -> 26 ;
27 [label="gini = 0.0\nsamples = 1\nvalue = [1, 0]\nclass = 1", fillcolor="#e58139"] ;
23 -> 27 ;
28 [label="bmi <= 33.648\ngini = 0.159\nsamples = 23\nvalue = [21, 2]\nclass = 1", fillcolor="#e78d4c"] ;
14 -> 28 ;
29 [label="gender <= 0.154\ngini = 0.105\nsamples = 18\nvalue = [17, 1]\nclass = 1", fillcolor="#e78845"] ;
28 -> 29 ;
30 [label="gini = 0.0\nsamples = 13\nvalue = [13, 0]\nclass = 1", fillcolor="#e58139"] ;
29 -> 30 ;
31 [label="smoking_status <= 0.273\ngini = 0.32\nsamples = 5\nvalue = [4, 1]\nclass = 1", fillcolor="#eca06a"] ;
29 -> 31 ;
32 [label="avg_glucose_level <= 104.546\ngini = 0.444\nsamples = 3\nvalue = [2, 1]\nclass = 1", fillcolor="#f2c09c"] ;
31 -> 32 ;
33 [label="gini = 0.0\nsamples = 1\nvalue = [0, 1]\nclass = 0", fillcolor="#399de5"] ;
32 -> 33 ;
34 [label="gini = 0.0\nsamples = 2\nvalue = [2, 0]\nclass = 1", fillcolor="#e58139"] ;
32 -> 34 ;
35 [label="gini = 0.0\nsamples = 2\nvalue = [2, 0]\nclass = 1", fillcolor="#e58139"] ;
31 -> 35 ;
36 [label="avg_glucose_level <= 83.608\ngini = 0.32\nsamples = 5\nvalue = [4, 1]\nclass = 1", fillcolor="#eca06a"] ;
28 -> 36 ;
37 [label="gini = 0.0\nsamples = 3\nvalue = [3, 0]\nclass = 1", fillcolor="#e58139"] ;
36 -> 37 ;
38 [label="bmi <= 41.47\ngini = 0.5\nsamples = 2\nvalue = [1, 1]\nclass = 1", fillcolor="#ffffff"] ;
36 -> 38 ;
39 [label="gini = 0.0\nsamples = 1\nvalue = [0, 1]\nclass = 0", fillcolor="#399de5"] ;
38 -> 39 ;
40 [label="gini = 0.0\nsamples = 1\nvalue = [1, 0]\nclass = 1", fillcolor="#e58139"] ;
38 -> 40 ;
41 [label="work_type <= 2.006\ngini = 0.18\nsamples = 20\nvalue = [18, 2]\nclass = 1", fillcolor="#e88f4f"] ;
3 -> 41 ;
42 [label="age <= 80.64\ngini = 0.346\nsamples = 9\nvalue = [7, 2]\nclass = 1", fillcolor="#eca572"] ;
41 -> 42 ;
43 [label="bmi <= 23.264\ngini = 0.219\nsamples = 8\nvalue = [7, 1]\nclass = 1", fillcolor="#e99355"] ;
42 -> 43 ;
44 [label="gini = 0.0\nsamples = 1\nvalue = [0, 1]\nclass = 0", fillcolor="#399de5"] ;
43 -> 44 ;
45 [label="gini = 0.0\nsamples = 7\nvalue = [7, 0]\nclass = 1", fillcolor="#e58139"] ;
43 -> 45 ;
46 [label="gini = 0.0\nsamples = 1\nvalue = [0, 1]\nclass = 0", fillcolor="#399de5"] ;
42 -> 46 ;
47 [label="gini = 0.0\nsamples = 11\nvalue = [11, 0]\nclass = 1", fillcolor="#e58139"] ;
41 -> 47 ;
48 [label="age <= 70.101\ngini = 0.061\nsamples = 1307\nvalue = [1266, 41]\nclass = 1", fillcolor="#e6853f"] ;
2 -> 48 ;
49 [label="age <= 39.502\ngini = 0.045\nsamples = 1140\nvalue = [1114, 26]\nclass = 1", fillcolor="#e6843e"] ;
48 -> 49 ;
50 [label="gender <= 0.323\ngini = 0.012\nsamples = 322\nvalue = [320, 2]\nclass = 1", fillcolor="#e5823a"] ;
49 -> 50 ;
51 [label="age <= 38.322\ngini = 0.018\nsamples = 217\nvalue = [215, 2]\nclass = 1", fillcolor="#e5823b"] ;
50 -> 51 ;
52 [label="Residence_type <= 0.862\ngini = 0.01\nsamples = 206\nvalue = [205, 1]\nclass = 1", fillcolor="#e5823a"] ;
51 -> 52 ;
53 [label="avg_glucose_level <= 94.065\ngini = 0.02\nsamples = 101\nvalue = [100, 1]\nclass = 1", fillcolor="#e5823b"] ;
52 -> 53 ;
54 [label="smoking_status <= 1.886\ngini = 0.035\nsamples = 56\nvalue = [55, 1]\nclass = 1", fillcolor="#e5833d"] ;
53 -> 54 ;
55 [label="gini = 0.0\nsamples = 22\nvalue = [22, 0]\nclass = 1", fillcolor="#e58139"] ;
54 -> 55 ;
56 [label="smoking_status <= 2.455\ngini = 0.057\nsamples = 34\nvalue = [33, 1]\nclass = 1", fillcolor="#e6853f"] ;
54 -> 56 ;
57 [label="gini = 0.0\nsamples = 23\nvalue = [23, 0]\nclass = 1", fillcolor="#e58139"] ;
56 -> 57 ;
58 [label="work_type <= 1.256\ngini = 0.165\nsamples = 11\nvalue = [10, 1]\nclass = 1", fillcolor="#e88e4d"] ;
56 -> 58 ;
59 [label="gini = 0.0\nsamples = 3\nvalue = [3, 0]\nclass = 1", fillcolor="#e58139"] ;
58 -> 59 ;
60 [label="bmi <= 31.874\ngini = 0.219\nsamples = 8\nvalue = [7, 1]\nclass = 1", fillcolor="#e99355"] ;
58 -> 60 ;
61 [label="avg_glucose_level <= 76.286\ngini = 0.375\nsamples = 4\nvalue = [3, 1]\nclass = 1", fillcolor="#eeab7b"] ;
60 -> 61 ;
62 [label="gini = 0.0\nsamples = 1\nvalue = [0, 1]\nclass = 0", fillcolor="#399de5"] ;
61 -> 62 ;
63 [label="gini = 0.0\nsamples = 3\nvalue = [3, 0]\nclass = 1", fillcolor="#e58139"] ;
61 -> 63 ;
64 [label="gini = 0.0\nsamples = 4\nvalue = [4, 0]\nclass = 1", fillcolor="#e58139"] ;
60 -> 64 ;
65 [label="gini = 0.0\nsamples = 45\nvalue = [45, 0]\nclass = 1", fillcolor="#e58139"] ;
53 -> 65 ;
66 [label="gini = 0.0\nsamples = 105\nvalue = [105, 0]\nclass = 1", fillcolor="#e58139"] ;
52 -> 66 ;
67 [label="bmi <= 29.068\ngini = 0.165\nsamples = 11\nvalue = [10, 1]\nclass = 1", fillcolor="#e88e4d"] ;
51 -> 67 ;
68 [label="id <= 26026.652\ngini = 0.32\nsamples = 5\nvalue = [4, 1]\nclass = 1", fillcolor="#eca06a"] ;
67 -> 68 ;
69 [label="gini = 0.0\nsamples = 2\nvalue = [2, 0]\nclass = 1", fillcolor="#e58139"] ;
68 -> 69 ;
70 [label="bmi <= 27.399\ngini = 0.444\nsamples = 3\nvalue = [2, 1]\nclass = 1", fillcolor="#f2c09c"] ;
68 -> 70 ;
71 [label="id <= 30863.339\ngini = 0.5\nsamples = 2\nvalue = [1, 1]\nclass = 1", fillcolor="#ffffff"] ;
70 -> 71 ;
72 [label="gini = 0.0\nsamples = 1\nvalue = [1, 0]\nclass = 1", fillcolor="#e58139"] ;
71 -> 72 ;
73 [label="gini = 0.0\nsamples = 1\nvalue = [0, 1]\nclass = 0", fillcolor="#399de5"] ;
71 -> 73 ;
74 [label="gini = 0.0\nsamples = 1\nvalue = [1, 0]\nclass = 1", fillcolor="#e58139"] ;
70 -> 74 ;
75 [label="gini = 0.0\nsamples = 6\nvalue = [6, 0]\nclass = 1", fillcolor="#e58139"] ;
67 -> 75 ;
76 [label="gini = 0.0\nsamples = 105\nvalue = [105, 0]\nclass = 1", fillcolor="#e58139"] ;
50 -> 76 ;
77 [label="avg_glucose_level <= 149.063\ngini = 0.057\nsamples = 818\nvalue = [794, 24]\nclass = 1", fillcolor="#e6853f"] ;
49 -> 77 ;
78 [label="age <= 58.116\ngini = 0.047\nsamples = 701\nvalue = [684, 17]\nclass = 1", fillcolor="#e6843e"] ;
77 -> 78 ;
79 [label="age <= 48.625\ngini = 0.039\nsamples = 504\nvalue = [494, 10]\nclass = 1", fillcolor="#e6843d"] ;
78 -> 79 ;
80 [label="avg_glucose_level <= 86.993\ngini = 0.024\nsamples = 247\nvalue = [244, 3]\nclass = 1", fillcolor="#e5833b"] ;
79 -> 80 ;
81 [label="gender <= 0.817\ngini = 0.047\nsamples = 124\nvalue = [121, 3]\nclass = 1", fillcolor="#e6843e"] ;
80 -> 81 ;
82 [label="age <= 45.579\ngini = 0.027\nsamples = 74\nvalue = [73, 1]\nclass = 1", fillcolor="#e5833c"] ;
81 -> 82 ;
83 [label="gini = 0.0\nsamples = 51\nvalue = [51, 0]\nclass = 1", fillcolor="#e58139"] ;
82 -> 83 ;
84 [label="age <= 47.224\ngini = 0.083\nsamples = 23\nvalue = [22, 1]\nclass = 1", fillcolor="#e68742"] ;
82 -> 84 ;
85 [label="gini = 0.0\nsamples = 14\nvalue = [14, 0]\nclass = 1", fillcolor="#e58139"] ;
84 -> 85 ;
86 [label="bmi <= 26.893\ngini = 0.198\nsamples = 9\nvalue = [8, 1]\nclass = 1", fillcolor="#e89152"] ;
84 -> 86 ;
87 [label="bmi <= 24.393\ngini = 0.5\nsamples = 2\nvalue = [1, 1]\nclass = 1", fillcolor="#ffffff"] ;
86 -> 87 ;
88 [label="gini = 0.0\nsamples = 1\nvalue = [0, 1]\nclass = 0", fillcolor="#399de5"] ;
87 -> 88 ;
89 [label="gini = 0.0\nsamples = 1\nvalue = [1, 0]\nclass = 1", fillcolor="#e58139"] ;
87 -> 89 ;
90 [label="gini = 0.0\nsamples = 7\nvalue = [7, 0]\nclass = 1", fillcolor="#e58139"] ;
86 -> 90 ;
91 [label="age <= 46.307\ngini = 0.077\nsamples = 50\nvalue = [48, 2]\nclass = 1", fillcolor="#e68641"] ;
81 -> 91 ;
92 [label="age <= 44.367\ngini = 0.046\nsamples = 42\nvalue = [41, 1]\nclass = 1", fillcolor="#e6843e"] ;
91 -> 92 ;
93 [label="gini = 0.0\nsamples = 24\nvalue = [24, 0]\nclass = 1", fillcolor="#e58139"] ;
92 -> 93 ;
94 [label="age <= 45.28\ngini = 0.105\nsamples = 18\nvalue = [17, 1]\nclass = 1", fillcolor="#e78845"] ;
92 -> 94 ;
95 [label="smoking_status <= 1.437\ngini = 0.219\nsamples = 8\nvalue = [7, 1]\nclass = 1", fillcolor="#e99355"] ;
94 -> 95 ;
96 [label="gini = 0.0\nsamples = 3\nvalue = [3, 0]\nclass = 1", fillcolor="#e58139"] ;
95 -> 96 ;
97 [label="avg_glucose_level <= 63.23\ngini = 0.32\nsamples = 5\nvalue = [4, 1]\nclass = 1", fillcolor="#eca06a"] ;
95 -> 97 ;
98 [label="gini = 0.0\nsamples = 2\nvalue = [2, 0]\nclass = 1", fillcolor="#e58139"] ;
97 -> 98 ;
99 [label="id <= 32039.922\ngini = 0.444\nsamples = 3\nvalue = [2, 1]\nclass = 1", fillcolor="#f2c09c"] ;
97 -> 99 ;
100 [label="gini = 0.0\nsamples = 2\nvalue = [2, 0]\nclass = 1", fillcolor="#e58139"] ;
99 -> 100 ;
101 [label="gini = 0.0\nsamples = 1\nvalue = [0, 1]\nclass = 0", fillcolor="#399de5"] ;
99 -> 101 ;
102 [label="gini = 0.0\nsamples = 10\nvalue = [10, 0]\nclass = 1", fillcolor="#e58139"] ;
94 -> 102 ;
103 [label="id <= 14658.821\ngini = 0.219\nsamples = 8\nvalue = [7, 1]\nclass = 1", fillcolor="#e99355"] ;
91 -> 103 ;
104 [label="gini = 0.0\nsamples = 1\nvalue = [0, 1]\nclass = 0", fillcolor="#399de5"] ;
103 -> 104 ;
105 [label="gini = 0.0\nsamples = 7\nvalue = [7, 0]\nclass = 1", fillcolor="#e58139"] ;
103 -> 105 ;
106 [label="gini = 0.0\nsamples = 123\nvalue = [123, 0]\nclass = 1", fillcolor="#e58139"] ;
80 -> 106 ;
107 [label="work_type <= 2.194\ngini = 0.053\nsamples = 257\nvalue = [250, 7]\nclass = 1", fillcolor="#e6853f"] ;
79 -> 107 ;
108 [label="id <= 63116.784\ngini = 0.064\nsamples = 211\nvalue = [204, 7]\nclass = 1", fillcolor="#e68540"] ;
107 -> 108 ;
109 [label="bmi <= 36.151\ngini = 0.075\nsamples = 179\nvalue = [172, 7]\nclass = 1", fillcolor="#e68641"] ;
108 -> 109 ;
110 [label="Residence_type <= 0.509\ngini = 0.053\nsamples = 147\nvalue = [143, 4]\nclass = 1", fillcolor="#e6853f"] ;
109 -> 110 ;
111 [label="smoking_status <= 2.562\ngini = 0.089\nsamples = 64\nvalue = [61, 3]\nclass = 1", fillcolor="#e68743"] ;
110 -> 111 ;
112 [label="gender <= 0.212\ngini = 0.038\nsamples = 51\nvalue = [50, 1]\nclass = 1", fillcolor="#e6843d"] ;
111 -> 112 ;
113 [label="smoking_status <= 1.377\ngini = 0.08\nsamples = 24\nvalue = [23, 1]\nclass = 1", fillcolor="#e68642"] ;
112 -> 113 ;
114 [label="gini = 0.0\nsamples = 10\nvalue = [10, 0]\nclass = 1", fillcolor="#e58139"] ;
113 -> 114 ;
115 [label="age <= 51.566\ngini = 0.133\nsamples = 14\nvalue = [13, 1]\nclass = 1", fillcolor="#e78b48"] ;
113 -> 115 ;
116 [label="gini = 0.0\nsamples = 9\nvalue = [9, 0]\nclass = 1", fillcolor="#e58139"] ;
115 -> 116 ;
117 [label="bmi <= 26.638\ngini = 0.32\nsamples = 5\nvalue = [4, 1]\nclass = 1", fillcolor="#eca06a"] ;
115 -> 117 ;
118 [label="work_type <= 0.817\ngini = 0.5\nsamples = 2\nvalue = [1, 1]\nclass = 1", fillcolor="#ffffff"] ;
117 -> 118 ;
119 [label="gini = 0.0\nsamples = 1\nvalue = [1, 0]\nclass = 1", fillcolor="#e58139"] ;
118 -> 119 ;
120 [label="gini = 0.0\nsamples = 1\nvalue = [0, 1]\nclass = 0", fillcolor="#399de5"] ;
118 -> 120 ;
121 [label="gini = 0.0\nsamples = 3\nvalue = [3, 0]\nclass = 1", fillcolor="#e58139"] ;
117 -> 121 ;
122 [label="gini = 0.0\nsamples = 27\nvalue = [27, 0]\nclass = 1", fillcolor="#e58139"] ;
112 -> 122 ;
123 [label="id <= 19594.556\ngini = 0.26\nsamples = 13\nvalue = [11, 2]\nclass = 1", fillcolor="#ea985d"] ;
111 -> 123 ;
124 [label="gini = 0.0\nsamples = 4\nvalue = [4, 0]\nclass = 1", fillcolor="#e58139"] ;
123 -> 124 ;
125 [label="bmi <= 31.4\ngini = 0.346\nsamples = 9\nvalue = [7, 2]\nclass = 1", fillcolor="#eca572"] ;
123 -> 125 ;
126 [label="avg_glucose_level <= 96.425\ngini = 0.444\nsamples = 6\nvalue = [4, 2]\nclass = 1", fillcolor="#f2c09c"] ;
125 -> 126 ;
127 [label="gini = 0.0\nsamples = 4\nvalue = [4, 0]\nclass = 1", fillcolor="#e58139"] ;
126 -> 127 ;
128 [label="gini = 0.0\nsamples = 2\nvalue = [0, 2]\nclass = 0", fillcolor="#399de5"] ;
126 -> 128 ;
129 [label="gini = 0.0\nsamples = 3\nvalue = [3, 0]\nclass = 1", fillcolor="#e58139"] ;
125 -> 129 ;
130 [label="id <= 18872.501\ngini = 0.024\nsamples = 83\nvalue = [82, 1]\nclass = 1", fillcolor="#e5833b"] ;
110 -> 130 ;
131 [label="gender <= 0.49\ngini = 0.064\nsamples = 30\nvalue = [29, 1]\nclass = 1", fillcolor="#e68540"] ;
130 -> 131 ;
132 [label="gini = 0.0\nsamples = 18\nvalue = [18, 0]\nclass = 1", fillcolor="#e58139"] ;
131 -> 132 ;
133 [label="id <= 6868.229\ngini = 0.153\nsamples = 12\nvalue = [11, 1]\nclass = 1", fillcolor="#e78c4b"] ;
131 -> 133 ;
134 [label="avg_glucose_level <= 86.039\ngini = 0.375\nsamples = 4\nvalue = [3, 1]\nclass = 1", fillcolor="#eeab7b"] ;
133 -> 134 ;
135 [label="gini = 0.0\nsamples = 1\nvalue = [0, 1]\nclass = 0", fillcolor="#399de5"] ;
134 -> 135 ;
136 [label="gini = 0.0\nsamples = 3\nvalue = [3, 0]\nclass = 1", fillcolor="#e58139"] ;
134 -> 136 ;
137 [label="gini = 0.0\nsamples = 8\nvalue = [8, 0]\nclass = 1", fillcolor="#e58139"] ;
133 -> 137 ;
138 [label="gini = 0.0\nsamples = 53\nvalue = [53, 0]\nclass = 1", fillcolor="#e58139"] ;
130 -> 138 ;
139 [label="id <= 58504.542\ngini = 0.17\nsamples = 32\nvalue = [29, 3]\nclass = 1", fillcolor="#e88e4d"] ;
109 -> 139 ;
140 [label="avg_glucose_level <= 103.23\ngini = 0.124\nsamples = 30\nvalue = [28, 2]\nclass = 1", fillcolor="#e78a47"] ;
139 -> 140 ;
141 [label="age <= 56.157\ngini = 0.083\nsamples = 23\nvalue = [22, 1]\nclass = 1", fillcolor="#e68742"] ;
140 -> 141 ;
142 [label="gini = 0.0\nsamples = 20\nvalue = [20, 0]\nclass = 1", fillcolor="#e58139"] ;
141 -> 142 ;
143 [label="id <= 31386.972\ngini = 0.444\nsamples = 3\nvalue = [2, 1]\nclass = 1", fillcolor="#f2c09c"] ;
141 -> 143 ;
144 [label="gini = 0.0\nsamples = 1\nvalue = [0, 1]\nclass = 0", fillcolor="#399de5"] ;
143 -> 144 ;
145 [label="gini = 0.0\nsamples = 2\nvalue = [2, 0]\nclass = 1", fillcolor="#e58139"] ;
143 -> 145 ;
146 [label="avg_glucose_level <= 107.741\ngini = 0.245\nsamples = 7\nvalue = [6, 1]\nclass = 1", fillcolor="#e9965a"] ;
140 -> 146 ;
147 [label="avg_glucose_level <= 105.39\ngini = 0.5\nsamples = 2\nvalue = [1, 1]\nclass = 1", fillcolor="#ffffff"] ;
146 -> 147 ;
148 [label="gini = 0.0\nsamples = 1\nvalue = [1, 0]\nclass = 1", fillcolor="#e58139"] ;
147 -> 148 ;
149 [label="gini = 0.0\nsamples = 1\nvalue = [0, 1]\nclass = 0", fillcolor="#399de5"] ;
147 -> 149 ;
150 [label="gini = 0.0\nsamples = 5\nvalue = [5, 0]\nclass = 1", fillcolor="#e58139"] ;
146 -> 150 ;
151 [label="id <= 58639.226\ngini = 0.5\nsamples = 2\nvalue = [1, 1]\nclass = 1", fillcolor="#ffffff"] ;
139 -> 151 ;
152 [label="gini = 0.0\nsamples = 1\nvalue = [1, 0]\nclass = 1", fillcolor="#e58139"] ;
151 -> 152 ;
153 [label="gini = 0.0\nsamples = 1\nvalue = [0, 1]\nclass = 0", fillcolor="#399de5"] ;
151 -> 153 ;
154 [label="gini = 0.0\nsamples = 32\nvalue = [32, 0]\nclass = 1", fillcolor="#e58139"] ;
108 -> 154 ;
155 [label="gini = 0.0\nsamples = 46\nvalue = [46, 0]\nclass = 1", fillcolor="#e58139"] ;
107 -> 155 ;
156 [label="age <= 67.445\ngini = 0.069\nsamples = 197\nvalue = [190, 7]\nclass = 1", fillcolor="#e68640"] ;
78 -> 156 ;
157 [label="smoking_status <= 1.304\ngini = 0.046\nsamples = 171\nvalue = [167, 4]\nclass = 1", fillcolor="#e6843e"] ;
156 -> 157 ;
158 [label="smoking_status <= 0.623\ngini = 0.072\nsamples = 80\nvalue = [77, 3]\nclass = 1", fillcolor="#e68641"] ;
157 -> 158 ;
159 [label="gini = 0.0\nsamples = 36\nvalue = [36, 0]\nclass = 1", fillcolor="#e58139"] ;
158 -> 159 ;
160 [label="bmi <= 23.717\ngini = 0.127\nsamples = 44\nvalue = [41, 3]\nclass = 1", fillcolor="#e78a47"] ;
158 -> 160 ;
161 [label="id <= 46055.218\ngini = 0.32\nsamples = 5\nvalue = [4, 1]\nclass = 1", fillcolor="#eca06a"] ;
160 -> 161 ;
162 [label="bmi <= 21.113\ngini = 0.5\nsamples = 2\nvalue = [1, 1]\nclass = 1", fillcolor="#ffffff"] ;
161 -> 162 ;
163 [label="gini = 0.0\nsamples = 1\nvalue = [1, 0]\nclass = 1", fillcolor="#e58139"] ;
162 -> 163 ;
164 [label="gini = 0.0\nsamples = 1\nvalue = [0, 1]\nclass = 0", fillcolor="#399de5"] ;
162 -> 164 ;
165 [label="gini = 0.0\nsamples = 3\nvalue = [3, 0]\nclass = 1", fillcolor="#e58139"] ;
161 -> 165 ;
166 [label="work_type <= 0.066\ngini = 0.097\nsamples = 39\nvalue = [37, 2]\nclass = 1", fillcolor="#e68844"] ;
160 -> 166 ;
167 [label="gini = 0.0\nsamples = 6\nvalue = [6, 0]\nclass = 1", fillcolor="#e58139"] ;
166 -> 167 ;
168 [label="avg_glucose_level <= 103.538\ngini = 0.114\nsamples = 33\nvalue = [31, 2]\nclass = 1", fillcolor="#e78946"] ;
166 -> 168 ;
169 [label="Residence_type <= 0.595\ngini = 0.074\nsamples = 26\nvalue = [25, 1]\nclass = 1", fillcolor="#e68641"] ;
168 -> 169 ;
170 [label="avg_glucose_level <= 93.502\ngini = 0.198\nsamples = 9\nvalue = [8, 1]\nclass = 1", fillcolor="#e89152"] ;
169 -> 170 ;
171 [label="gini = 0.0\nsamples = 7\nvalue = [7, 0]\nclass = 1", fillcolor="#e58139"] ;
170 -> 171 ;
172 [label="bmi <= 29.037\ngini = 0.5\nsamples = 2\nvalue = [1, 1]\nclass = 1", fillcolor="#ffffff"] ;
170 -> 172 ;
173 [label="gini = 0.0\nsamples = 1\nvalue = [0, 1]\nclass = 0", fillcolor="#399de5"] ;
172 -> 173 ;
174 [label="gini = 0.0\nsamples = 1\nvalue = [1, 0]\nclass = 1", fillcolor="#e58139"] ;
172 -> 174 ;
175 [label="gini = 0.0\nsamples = 17\nvalue = [17, 0]\nclass = 1", fillcolor="#e58139"] ;
169 -> 175 ;
176 [label="gender <= 0.79\ngini = 0.245\nsamples = 7\nvalue = [6, 1]\nclass = 1", fillcolor="#e9965a"] ;
168 -> 176 ;
177 [label="gini = 0.0\nsamples = 4\nvalue = [4, 0]\nclass = 1", fillcolor="#e58139"] ;
176 -> 177 ;
178 [label="bmi <= 27.543\ngini = 0.444\nsamples = 3\nvalue = [2, 1]\nclass = 1", fillcolor="#f2c09c"] ;
176 -> 178 ;
179 [label="gini = 0.0\nsamples = 2\nvalue = [2, 0]\nclass = 1", fillcolor="#e58139"] ;
178 -> 179 ;
180 [label="gini = 0.0\nsamples = 1\nvalue = [0, 1]\nclass = 0", fillcolor="#399de5"] ;
178 -> 180 ;
181 [label="smoking_status <= 2.919\ngini = 0.022\nsamples = 91\nvalue = [90, 1]\nclass = 1", fillcolor="#e5823b"] ;
157 -> 181 ;
182 [label="gini = 0.0\nsamples = 57\nvalue = [57, 0]\nclass = 1", fillcolor="#e58139"] ;
181 -> 182 ;
183 [label="gender <= 0.019\ngini = 0.057\nsamples = 34\nvalue = [33, 1]\nclass = 1", fillcolor="#e6853f"] ;
181 -> 183 ;
184 [label="id <= 64549.085\ngini = 0.1\nsamples = 19\nvalue = [18, 1]\nclass = 1", fillcolor="#e68844"] ;
183 -> 184 ;
185 [label="gini = 0.0\nsamples = 16\nvalue = [16, 0]\nclass = 1", fillcolor="#e58139"] ;
184 -> 185 ;
186 [label="avg_glucose_level <= 96.878\ngini = 0.444\nsamples = 3\nvalue = [2, 1]\nclass = 1", fillcolor="#f2c09c"] ;
184 -> 186 ;
187 [label="gini = 0.0\nsamples = 2\nvalue = [2, 0]\nclass = 1", fillcolor="#e58139"] ;
186 -> 187 ;
188 [label="gini = 0.0\nsamples = 1\nvalue = [0, 1]\nclass = 0", fillcolor="#399de5"] ;
186 -> 188 ;
189 [label="gini = 0.0\nsamples = 15\nvalue = [15, 0]\nclass = 1", fillcolor="#e58139"] ;
183 -> 189 ;
190 [label="age <= 68.157\ngini = 0.204\nsamples = 26\nvalue = [23, 3]\nclass = 1", fillcolor="#e89153"] ;
156 -> 190 ;
191 [label="gini = 0.0\nsamples = 13\nvalue = [13, 0]\nclass = 1", fillcolor="#e58139"] ;
190 -> 191 ;
192 [label="work_type <= 1.731\ngini = 0.355\nsamples = 13\nvalue = [10, 3]\nclass = 1", fillcolor="#eda774"] ;
190 -> 192 ;
193 [label="gini = 0.0\nsamples = 1\nvalue = [0, 1]\nclass = 0", fillcolor="#399de5"] ;
192 -> 193 ;
194 [label="Residence_type <= 0.826\ngini = 0.278\nsamples = 12\nvalue = [10, 2]\nclass = 1", fillcolor="#ea9a61"] ;
192 -> 194 ;
195 [label="gender <= 0.141\ngini = 0.48\nsamples = 5\nvalue = [3, 2]\nclass = 1", fillcolor="#f6d5bd"] ;
194 -> 195 ;
196 [label="age <= 69.318\ngini = 0.375\nsamples = 4\nvalue = [3, 1]\nclass = 1", fillcolor="#eeab7b"] ;
195 -> 196 ;
197 [label="gini = 0.0\nsamples = 2\nvalue = [2, 0]\nclass = 1", fillcolor="#e58139"] ;
196 -> 197 ;
198 [label="bmi <= 26.841\ngini = 0.5\nsamples = 2\nvalue = [1, 1]\nclass = 1", fillcolor="#ffffff"] ;
196 -> 198 ;
199 [label="gini = 0.0\nsamples = 1\nvalue = [0, 1]\nclass = 0", fillcolor="#399de5"] ;
198 -> 199 ;
200 [label="gini = 0.0\nsamples = 1\nvalue = [1, 0]\nclass = 1", fillcolor="#e58139"] ;
198 -> 200 ;
201 [label="gini = 0.0\nsamples = 1\nvalue = [0, 1]\nclass = 0", fillcolor="#399de5"] ;
195 -> 201 ;
202 [label="gini = 0.0\nsamples = 7\nvalue = [7, 0]\nclass = 1", fillcolor="#e58139"] ;
194 -> 202 ;
203 [label="bmi <= 27.388\ngini = 0.112\nsamples = 117\nvalue = [110, 7]\nclass = 1", fillcolor="#e78946"] ;
77 -> 203 ;
204 [label="gini = 0.0\nsamples = 15\nvalue = [15, 0]\nclass = 1", fillcolor="#e58139"] ;
203 -> 204 ;
205 [label="smoking_status <= 2.222\ngini = 0.128\nsamples = 102\nvalue = [95, 7]\nclass = 1", fillcolor="#e78a48"] ;
203 -> 205 ;
206 [label="Residence_type <= 0.532\ngini = 0.095\nsamples = 80\nvalue = [76, 4]\nclass = 1", fillcolor="#e68843"] ;
205 -> 206 ;
207 [label="age <= 62.644\ngini = 0.127\nsamples = 44\nvalue = [41, 3]\nclass = 1", fillcolor="#e78a47"] ;
206 -> 207 ;
208 [label="gini = 0.0\nsamples = 28\nvalue = [28, 0]\nclass = 1", fillcolor="#e58139"] ;
207 -> 208 ;
209 [label="smoking_status <= 0.77\ngini = 0.305\nsamples = 16\nvalue = [13, 3]\nclass = 1", fillcolor="#eb9e67"] ;
207 -> 209 ;
210 [label="gini = 0.0\nsamples = 1\nvalue = [0, 1]\nclass = 0", fillcolor="#399de5"] ;
209 -> 210 ;
211 [label="age <= 64.175\ngini = 0.231\nsamples = 15\nvalue = [13, 2]\nclass = 1", fillcolor="#e99457"] ;
209 -> 211 ;
212 [label="id <= 7513.779\ngini = 0.408\nsamples = 7\nvalue = [5, 2]\nclass = 1", fillcolor="#efb388"] ;
211 -> 212 ;
213 [label="gini = 0.0\nsamples = 2\nvalue = [2, 0]\nclass = 1", fillcolor="#e58139"] ;
212 -> 213 ;
214 [label="avg_glucose_level <= 169.114\ngini = 0.48\nsamples = 5\nvalue = [3, 2]\nclass = 1", fillcolor="#f6d5bd"] ;
212 -> 214 ;
215 [label="gini = 0.0\nsamples = 1\nvalue = [1, 0]\nclass = 1", fillcolor="#e58139"] ;
214 -> 215 ;
216 [label="gender <= 0.431\ngini = 0.5\nsamples = 4\nvalue = [2, 2]\nclass = 1", fillcolor="#ffffff"] ;
214 -> 216 ;
217 [label="gini = 0.0\nsamples = 1\nvalue = [0, 1]\nclass = 0", fillcolor="#399de5"] ;
216 -> 217 ;
218 [label="bmi <= 28.519\ngini = 0.444\nsamples = 3\nvalue = [2, 1]\nclass = 1", fillcolor="#f2c09c"] ;
216 -> 218 ;
219 [label="gini = 0.0\nsamples = 1\nvalue = [0, 1]\nclass = 0", fillcolor="#399de5"] ;
218 -> 219 ;
220 [label="gini = 0.0\nsamples = 2\nvalue = [2, 0]\nclass = 1", fillcolor="#e58139"] ;
218 -> 220 ;
221 [label="gini = 0.0\nsamples = 8\nvalue = [8, 0]\nclass = 1", fillcolor="#e58139"] ;
211 -> 221 ;
222 [label="bmi <= 33.158\ngini = 0.054\nsamples = 36\nvalue = [35, 1]\nclass = 1", fillcolor="#e6853f"] ;
206 -> 222 ;
223 [label="bmi <= 28.69\ngini = 0.133\nsamples = 14\nvalue = [13, 1]\nclass = 1", fillcolor="#e78b48"] ;
222 -> 223 ;
224 [label="gender <= 0.646\ngini = 0.5\nsamples = 2\nvalue = [1, 1]\nclass = 1", fillcolor="#ffffff"] ;
223 -> 224 ;
225 [label="gini = 0.0\nsamples = 1\nvalue = [1, 0]\nclass = 1", fillcolor="#e58139"] ;
224 -> 225 ;
226 [label="gini = 0.0\nsamples = 1\nvalue = [0, 1]\nclass = 0", fillcolor="#399de5"] ;
224 -> 226 ;
227 [label="gini = 0.0\nsamples = 12\nvalue = [12, 0]\nclass = 1", fillcolor="#e58139"] ;
223 -> 227 ;
228 [label="gini = 0.0\nsamples = 22\nvalue = [22, 0]\nclass = 1", fillcolor="#e58139"] ;
222 -> 228 ;
229 [label="gender <= 0.542\ngini = 0.236\nsamples = 22\nvalue = [19, 3]\nclass = 1", fillcolor="#e99558"] ;
205 -> 229 ;
230 [label="id <= 56377.165\ngini = 0.337\nsamples = 14\nvalue = [11, 3]\nclass = 1", fillcolor="#eca36f"] ;
229 -> 230 ;
231 [label="id <= 18096.161\ngini = 0.198\nsamples = 9\nvalue = [8, 1]\nclass = 1", fillcolor="#e89152"] ;
230 -> 231 ;
232 [label="Residence_type <= 0.437\ngini = 0.5\nsamples = 2\nvalue = [1, 1]\nclass = 1", fillcolor="#ffffff"] ;
231 -> 232 ;
233 [label="gini = 0.0\nsamples = 1\nvalue = [0, 1]\nclass = 0", fillcolor="#399de5"] ;
232 -> 233 ;
234 [label="gini = 0.0\nsamples = 1\nvalue = [1, 0]\nclass = 1", fillcolor="#e58139"] ;
232 -> 234 ;
235 [label="gini = 0.0\nsamples = 7\nvalue = [7, 0]\nclass = 1", fillcolor="#e58139"] ;
231 -> 235 ;
236 [label="id <= 62158.66\ngini = 0.48\nsamples = 5\nvalue = [3, 2]\nclass = 1", fillcolor="#f6d5bd"] ;
230 -> 236 ;
237 [label="gini = 0.0\nsamples = 2\nvalue = [0, 2]\nclass = 0", fillcolor="#399de5"] ;
236 -> 237 ;
238 [label="gini = 0.0\nsamples = 3\nvalue = [3, 0]\nclass = 1", fillcolor="#e58139"] ;
236 -> 238 ;
239 [label="gini = 0.0\nsamples = 8\nvalue = [8, 0]\nclass = 1", fillcolor="#e58139"] ;
229 -> 239 ;
240 [label="id <= 5954.796\ngini = 0.164\nsamples = 167\nvalue = [152, 15]\nclass = 1", fillcolor="#e88d4d"] ;
48 -> 240 ;
241 [label="id <= 2040.985\ngini = 0.444\nsamples = 12\nvalue = [8, 4]\nclass = 1", fillcolor="#f2c09c"] ;
240 -> 241 ;
242 [label="gini = 0.0\nsamples = 1\nvalue = [0, 1]\nclass = 0", fillcolor="#399de5"] ;
241 -> 242 ;
243 [label="id <= 5433.494\ngini = 0.397\nsamples = 11\nvalue = [8, 3]\nclass = 1", fillcolor="#efb083"] ;
241 -> 243 ;
244 [label="age <= 74.855\ngini = 0.32\nsamples = 10\nvalue = [8, 2]\nclass = 1", fillcolor="#eca06a"] ;
243 -> 244 ;
245 [label="work_type <= 1.78\ngini = 0.5\nsamples = 2\nvalue = [1, 1]\nclass = 1", fillcolor="#ffffff"] ;
244 -> 245 ;
246 [label="gini = 0.0\nsamples = 1\nvalue = [1, 0]\nclass = 1", fillcolor="#e58139"] ;
245 -> 246 ;
247 [label="gini = 0.0\nsamples = 1\nvalue = [0, 1]\nclass = 0", fillcolor="#399de5"] ;
245 -> 247 ;
248 [label="work_type <= 2.637\ngini = 0.219\nsamples = 8\nvalue = [7, 1]\nclass = 1", fillcolor="#e99355"] ;
244 -> 248 ;
249 [label="gini = 0.0\nsamples = 4\nvalue = [4, 0]\nclass = 1", fillcolor="#e58139"] ;
248 -> 249 ;
250 [label="id <= 2816.238\ngini = 0.375\nsamples = 4\nvalue = [3, 1]\nclass = 1", fillcolor="#eeab7b"] ;
248 -> 250 ;
251 [label="age <= 80.264\ngini = 0.5\nsamples = 2\nvalue = [1, 1]\nclass = 1", fillcolor="#ffffff"] ;
250 -> 251 ;
252 [label="gini = 0.0\nsamples = 1\nvalue = [1, 0]\nclass = 1", fillcolor="#e58139"] ;
251 -> 252 ;
253 [label="gini = 0.0\nsamples = 1\nvalue = [0, 1]\nclass = 0", fillcolor="#399de5"] ;
251 -> 253 ;
254 [label="gini = 0.0\nsamples = 2\nvalue = [2, 0]\nclass = 1", fillcolor="#e58139"] ;
250 -> 254 ;
255 [label="gini = 0.0\nsamples = 1\nvalue = [0, 1]\nclass = 0", fillcolor="#399de5"] ;
243 -> 255 ;
256 [label="avg_glucose_level <= 173.54\ngini = 0.132\nsamples = 155\nvalue = [144, 11]\nclass = 1", fillcolor="#e78b48"] ;
240 -> 256 ;
257 [label="smoking_status <= 2.409\ngini = 0.103\nsamples = 129\nvalue = [122, 7]\nclass = 1", fillcolor="#e68844"] ;
256 -> 257 ;
258 [label="work_type <= 2.738\ngini = 0.081\nsamples = 118\nvalue = [113, 5]\nclass = 1", fillcolor="#e68742"] ;
257 -> 258 ;
259 [label="work_type <= 0.698\ngini = 0.121\nsamples = 77\nvalue = [72, 5]\nclass = 1", fillcolor="#e78a47"] ;
258 -> 259 ;
260 [label="gini = 0.0\nsamples = 15\nvalue = [15, 0]\nclass = 1", fillcolor="#e58139"] ;
259 -> 260 ;
261 [label="avg_glucose_level <= 93.656\ngini = 0.148\nsamples = 62\nvalue = [57, 5]\nclass = 1", fillcolor="#e78c4a"] ;
259 -> 261 ;
262 [label="smoking_status <= 1.519\ngini = 0.1\nsamples = 38\nvalue = [36, 2]\nclass = 1", fillcolor="#e68844"] ;
261 -> 262 ;
263 [label="gini = 0.0\nsamples = 21\nvalue = [21, 0]\nclass = 1", fillcolor="#e58139"] ;
262 -> 263 ;
264 [label="avg_glucose_level <= 61.81\ngini = 0.208\nsamples = 17\nvalue = [15, 2]\nclass = 1", fillcolor="#e89253"] ;
262 -> 264 ;
265 [label="gini = 0.0\nsamples = 1\nvalue = [0, 1]\nclass = 0", fillcolor="#399de5"] ;
264 -> 265 ;
266 [label="age <= 78.523\ngini = 0.117\nsamples = 16\nvalue = [15, 1]\nclass = 1", fillcolor="#e78946"] ;
264 -> 266 ;
267 [label="gini = 0.0\nsamples = 11\nvalue = [11, 0]\nclass = 1", fillcolor="#e58139"] ;
266 -> 267 ;
268 [label="avg_glucose_level <= 89.745\ngini = 0.32\nsamples = 5\nvalue = [4, 1]\nclass = 1", fillcolor="#eca06a"] ;
266 -> 268 ;
269 [label="gini = 0.0\nsamples = 4\nvalue = [4, 0]\nclass = 1", fillcolor="#e58139"] ;
268 -> 269 ;
270 [label="gini = 0.0\nsamples = 1\nvalue = [0, 1]\nclass = 0", fillcolor="#399de5"] ;
268 -> 270 ;
271 [label="Residence_type <= 0.003\ngini = 0.219\nsamples = 24\nvalue = [21, 3]\nclass = 1", fillcolor="#e99355"] ;
261 -> 271 ;
272 [label="gini = 0.0\nsamples = 13\nvalue = [13, 0]\nclass = 1", fillcolor="#e58139"] ;
271 -> 272 ;
273 [label="id <= 59960.434\ngini = 0.397\nsamples = 11\nvalue = [8, 3]\nclass = 1", fillcolor="#efb083"] ;
271 -> 273 ;
274 [label="avg_glucose_level <= 116.95\ngini = 0.444\nsamples = 9\nvalue = [6, 3]\nclass = 1", fillcolor="#f2c09c"] ;
273 -> 274 ;
275 [label="avg_glucose_level <= 97.191\ngini = 0.5\nsamples = 4\nvalue = [2, 2]\nclass = 1", fillcolor="#ffffff"] ;
274 -> 275 ;
276 [label="gini = 0.0\nsamples = 2\nvalue = [2, 0]\nclass = 1", fillcolor="#e58139"] ;
275 -> 276 ;
277 [label="gini = 0.0\nsamples = 2\nvalue = [0, 2]\nclass = 0", fillcolor="#399de5"] ;
275 -> 277 ;
278 [label="gender <= 0.22\ngini = 0.32\nsamples = 5\nvalue = [4, 1]\nclass = 1", fillcolor="#eca06a"] ;
274 -> 278 ;
279 [label="gini = 0.0\nsamples = 3\nvalue = [3, 0]\nclass = 1", fillcolor="#e58139"] ;
278 -> 279 ;
280 [label="bmi <= 28.928\ngini = 0.5\nsamples = 2\nvalue = [1, 1]\nclass = 1", fillcolor="#ffffff"] ;
278 -> 280 ;
281 [label="gini = 0.0\nsamples = 1\nvalue = [1, 0]\nclass = 1", fillcolor="#e58139"] ;
280 -> 281 ;
282 [label="gini = 0.0\nsamples = 1\nvalue = [0, 1]\nclass = 0", fillcolor="#399de5"] ;
280 -> 282 ;
283 [label="gini = 0.0\nsamples = 2\nvalue = [2, 0]\nclass = 1", fillcolor="#e58139"] ;
273 -> 283 ;
284 [label="gini = 0.0\nsamples = 41\nvalue = [41, 0]\nclass = 1", fillcolor="#e58139"] ;
258 -> 284 ;
285 [label="id <= 50654.367\ngini = 0.298\nsamples = 11\nvalue = [9, 2]\nclass = 1", fillcolor="#eb9d65"] ;
257 -> 285 ;
286 [label="avg_glucose_level <= 98.208\ngini = 0.444\nsamples = 6\nvalue = [4, 2]\nclass = 1", fillcolor="#f2c09c"] ;
285 -> 286 ;
287 [label="avg_glucose_level <= 94.057\ngini = 0.5\nsamples = 4\nvalue = [2, 2]\nclass = 1", fillcolor="#ffffff"] ;
286 -> 287 ;
288 [label="id <= 14302.475\ngini = 0.444\nsamples = 3\nvalue = [2, 1]\nclass = 1", fillcolor="#f2c09c"] ;
287 -> 288 ;
289 [label="gini = 0.0\nsamples = 1\nvalue = [0, 1]\nclass = 0", fillcolor="#399de5"] ;
288 -> 289 ;
290 [label="gini = 0.0\nsamples = 2\nvalue = [2, 0]\nclass = 1", fillcolor="#e58139"] ;
288 -> 290 ;
291 [label="gini = 0.0\nsamples = 1\nvalue = [0, 1]\nclass = 0", fillcolor="#399de5"] ;
287 -> 291 ;
292 [label="gini = 0.0\nsamples = 2\nvalue = [2, 0]\nclass = 1", fillcolor="#e58139"] ;
286 -> 292 ;
293 [label="gini = 0.0\nsamples = 5\nvalue = [5, 0]\nclass = 1", fillcolor="#e58139"] ;
285 -> 293 ;
294 [label="smoking_status <= 1.918\ngini = 0.26\nsamples = 26\nvalue = [22, 4]\nclass = 1", fillcolor="#ea985d"] ;
256 -> 294 ;
295 [label="smoking_status <= 0.831\ngini = 0.397\nsamples = 11\nvalue = [8, 3]\nclass = 1", fillcolor="#efb083"] ;
294 -> 295 ;
296 [label="work_type <= 1.081\ngini = 0.444\nsamples = 3\nvalue = [1, 2]\nclass = 0", fillcolor="#9ccef2"] ;
295 -> 296 ;
297 [label="gini = 0.0\nsamples = 1\nvalue = [1, 0]\nclass = 1", fillcolor="#e58139"] ;
296 -> 297 ;
298 [label="gini = 0.0\nsamples = 2\nvalue = [0, 2]\nclass = 0", fillcolor="#399de5"] ;
296 -> 298 ;
299 [label="Residence_type <= 0.207\ngini = 0.219\nsamples = 8\nvalue = [7, 1]\nclass = 1", fillcolor="#e99355"] ;
295 -> 299 ;
300 [label="gini = 0.0\nsamples = 4\nvalue = [4, 0]\nclass = 1", fillcolor="#e58139"] ;
299 -> 300 ;
301 [label="id <= 65754.45\ngini = 0.375\nsamples = 4\nvalue = [3, 1]\nclass = 1", fillcolor="#eeab7b"] ;
299 -> 301 ;
302 [label="gini = 0.0\nsamples = 3\nvalue = [3, 0]\nclass = 1", fillcolor="#e58139"] ;
301 -> 302 ;
303 [label="gini = 0.0\nsamples = 1\nvalue = [0, 1]\nclass = 0", fillcolor="#399de5"] ;
301 -> 303 ;
304 [label="work_type <= 0.627\ngini = 0.124\nsamples = 15\nvalue = [14, 1]\nclass = 1", fillcolor="#e78a47"] ;
294 -> 304 ;
305 [label="id <= 56051.138\ngini = 0.5\nsamples = 2\nvalue = [1, 1]\nclass = 1", fillcolor="#ffffff"] ;
304 -> 305 ;
306 [label="gini = 0.0\nsamples = 1\nvalue = [1, 0]\nclass = 1", fillcolor="#e58139"] ;
305 -> 306 ;
307 [label="gini = 0.0\nsamples = 1\nvalue = [0, 1]\nclass = 0", fillcolor="#399de5"] ;
305 -> 307 ;
308 [label="gini = 0.0\nsamples = 13\nvalue = [13, 0]\nclass = 1", fillcolor="#e58139"] ;
304 -> 308 ;
309 [label="avg_glucose_level <= 107.735\ngini = 0.295\nsamples = 100\nvalue = [82, 18]\nclass = 1", fillcolor="#eb9d64"] ;
1 -> 309 ;
310 [label="ever_married <= 0.942\ngini = 0.171\nsamples = 53\nvalue = [48, 5]\nclass = 1", fillcolor="#e88e4e"] ;
309 -> 310 ;
311 [label="gini = 0.0\nsamples = 8\nvalue = [8, 0]\nclass = 1", fillcolor="#e58139"] ;
310 -> 311 ;
312 [label="bmi <= 27.734\ngini = 0.198\nsamples = 45\nvalue = [40, 5]\nclass = 1", fillcolor="#e89152"] ;
310 -> 312 ;
313 [label="age <= 78.404\ngini = 0.36\nsamples = 17\nvalue = [13, 4]\nclass = 1", fillcolor="#eda876"] ;
312 -> 313 ;
314 [label="gini = 0.0\nsamples = 9\nvalue = [9, 0]\nclass = 1", fillcolor="#e58139"] ;
313 -> 314 ;
315 [label="age <= 79.618\ngini = 0.5\nsamples = 8\nvalue = [4, 4]\nclass = 1", fillcolor="#ffffff"] ;
313 -> 315 ;
316 [label="gini = 0.0\nsamples = 2\nvalue = [2, 0]\nclass = 1", fillcolor="#e58139"] ;
315 -> 316 ;
317 [label="work_type <= 2.497\ngini = 0.444\nsamples = 6\nvalue = [2, 4]\nclass = 0", fillcolor="#9ccef2"] ;
315 -> 317 ;
318 [label="gini = 0.0\nsamples = 2\nvalue = [0, 2]\nclass = 0", fillcolor="#399de5"] ;
317 -> 318 ;
319 [label="id <= 64103.137\ngini = 0.5\nsamples = 4\nvalue = [2, 2]\nclass = 1", fillcolor="#ffffff"] ;
317 -> 319 ;
320 [label="avg_glucose_level <= 82.298\ngini = 0.444\nsamples = 3\nvalue = [2, 1]\nclass = 1", fillcolor="#f2c09c"] ;
319 -> 320 ;
321 [label="bmi <= 20.998\ngini = 0.5\nsamples = 2\nvalue = [1, 1]\nclass = 1", fillcolor="#ffffff"] ;
320 -> 321 ;
322 [label="gini = 0.0\nsamples = 1\nvalue = [0, 1]\nclass = 0", fillcolor="#399de5"] ;
321 -> 322 ;
323 [label="gini = 0.0\nsamples = 1\nvalue = [1, 0]\nclass = 1", fillcolor="#e58139"] ;
321 -> 323 ;
324 [label="gini = 0.0\nsamples = 1\nvalue = [1, 0]\nclass = 1", fillcolor="#e58139"] ;
320 -> 324 ;
325 [label="gini = 0.0\nsamples = 1\nvalue = [0, 1]\nclass = 0", fillcolor="#399de5"] ;
319 -> 325 ;
326 [label="smoking_status <= 2.801\ngini = 0.069\nsamples = 28\nvalue = [27, 1]\nclass = 1", fillcolor="#e68640"] ;
312 -> 326 ;
327 [label="gini = 0.0\nsamples = 20\nvalue = [20, 0]\nclass = 1", fillcolor="#e58139"] ;
326 -> 327 ;
328 [label="work_type <= 2.875\ngini = 0.219\nsamples = 8\nvalue = [7, 1]\nclass = 1", fillcolor="#e99355"] ;
326 -> 328 ;
329 [label="avg_glucose_level <= 92.659\ngini = 0.375\nsamples = 4\nvalue = [3, 1]\nclass = 1", fillcolor="#eeab7b"] ;
328 -> 329 ;
330 [label="gini = 0.0\nsamples = 1\nvalue = [0, 1]\nclass = 0", fillcolor="#399de5"] ;
329 -> 330 ;
331 [label="gini = 0.0\nsamples = 3\nvalue = [3, 0]\nclass = 1", fillcolor="#e58139"] ;
329 -> 331 ;
332 [label="gini = 0.0\nsamples = 4\nvalue = [4, 0]\nclass = 1", fillcolor="#e58139"] ;
328 -> 332 ;
333 [label="avg_glucose_level <= 213.182\ngini = 0.4\nsamples = 47\nvalue = [34, 13]\nclass = 1", fillcolor="#efb185"] ;
309 -> 333 ;
334 [label="work_type <= 0.938\ngini = 0.312\nsamples = 31\nvalue = [25, 6]\nclass = 1", fillcolor="#eb9f69"] ;
333 -> 334 ;
335 [label="gini = 0.0\nsamples = 1\nvalue = [0, 1]\nclass = 0", fillcolor="#399de5"] ;
334 -> 335 ;
336 [label="work_type <= 2.991\ngini = 0.278\nsamples = 30\nvalue = [25, 5]\nclass = 1", fillcolor="#ea9a61"] ;
334 -> 336 ;
337 [label="age <= 71.262\ngini = 0.351\nsamples = 22\nvalue = [17, 5]\nclass = 1", fillcolor="#eda673"] ;
336 -> 337 ;
338 [label="id <= 40060.98\ngini = 0.133\nsamples = 14\nvalue = [13, 1]\nclass = 1", fillcolor="#e78b48"] ;
337 -> 338 ;
339 [label="avg_glucose_level <= 177.602\ngini = 0.444\nsamples = 3\nvalue = [2, 1]\nclass = 1", fillcolor="#f2c09c"] ;
338 -> 339 ;
340 [label="gini = 0.0\nsamples = 2\nvalue = [2, 0]\nclass = 1", fillcolor="#e58139"] ;
339 -> 340 ;
341 [label="gini = 0.0\nsamples = 1\nvalue = [0, 1]\nclass = 0", fillcolor="#399de5"] ;
339 -> 341 ;
342 [label="gini = 0.0\nsamples = 11\nvalue = [11, 0]\nclass = 1", fillcolor="#e58139"] ;
338 -> 342 ;
343 [label="id <= 56078.469\ngini = 0.5\nsamples = 8\nvalue = [4, 4]\nclass = 1", fillcolor="#ffffff"] ;
337 -> 343 ;
344 [label="gini = 0.0\nsamples = 4\nvalue = [4, 0]\nclass = 1", fillcolor="#e58139"] ;
343 -> 344 ;
345 [label="gini = 0.0\nsamples = 4\nvalue = [0, 4]\nclass = 0", fillcolor="#399de5"] ;
343 -> 345 ;
346 [label="gini = 0.0\nsamples = 8\nvalue = [8, 0]\nclass = 1", fillcolor="#e58139"] ;
336 -> 346 ;
347 [label="bmi <= 25.285\ngini = 0.492\nsamples = 16\nvalue = [9, 7]\nclass = 1", fillcolor="#f9e3d3"] ;
333 -> 347 ;
348 [label="gini = 0.0\nsamples = 2\nvalue = [2, 0]\nclass = 1", fillcolor="#e58139"] ;
347 -> 348 ;
349 [label="work_type <= 2.272\ngini = 0.5\nsamples = 14\nvalue = [7, 7]\nclass = 1", fillcolor="#ffffff"] ;
347 -> 349 ;
350 [label="bmi <= 32.438\ngini = 0.48\nsamples = 10\nvalue = [4, 6]\nclass = 0", fillcolor="#bddef6"] ;
349 -> 350 ;
351 [label="id <= 16302.59\ngini = 0.32\nsamples = 5\nvalue = [1, 4]\nclass = 0", fillcolor="#6ab6ec"] ;
350 -> 351 ;
352 [label="avg_glucose_level <= 216.791\ngini = 0.5\nsamples = 2\nvalue = [1, 1]\nclass = 1", fillcolor="#ffffff"] ;
351 -> 352 ;
353 [label="gini = 0.0\nsamples = 1\nvalue = [0, 1]\nclass = 0", fillcolor="#399de5"] ;
352 -> 353 ;
354 [label="gini = 0.0\nsamples = 1\nvalue = [1, 0]\nclass = 1", fillcolor="#e58139"] ;
352 -> 354 ;
355 [label="gini = 0.0\nsamples = 3\nvalue = [0, 3]\nclass = 0", fillcolor="#399de5"] ;
351 -> 355 ;
356 [label="work_type <= 1.362\ngini = 0.48\nsamples = 5\nvalue = [3, 2]\nclass = 1", fillcolor="#f6d5bd"] ;
350 -> 356 ;
357 [label="gini = 0.0\nsamples = 2\nvalue = [2, 0]\nclass = 1", fillcolor="#e58139"] ;
356 -> 357 ;
358 [label="bmi <= 38.242\ngini = 0.444\nsamples = 3\nvalue = [1, 2]\nclass = 0", fillcolor="#9ccef2"] ;
356 -> 358 ;
359 [label="gini = 0.0\nsamples = 2\nvalue = [0, 2]\nclass = 0", fillcolor="#399de5"] ;
358 -> 359 ;
360 [label="gini = 0.0\nsamples = 1\nvalue = [1, 0]\nclass = 1", fillcolor="#e58139"] ;
358 -> 360 ;
361 [label="avg_glucose_level <= 245.428\ngini = 0.375\nsamples = 4\nvalue = [3, 1]\nclass = 1", fillcolor="#eeab7b"] ;
349 -> 361 ;
362 [label="gini = 0.0\nsamples = 3\nvalue = [3, 0]\nclass = 1", fillcolor="#e58139"] ;
361 -> 362 ;
363 [label="gini = 0.0\nsamples = 1\nvalue = [0, 1]\nclass = 0", fillcolor="#399de5"] ;
361 -> 363 ;
364 [label="age <= 64.869\ngini = 0.248\nsamples = 227\nvalue = [194, 33]\nclass = 1", fillcolor="#e9965b"] ;
0 -> 364 [labeldistance=2.5, labelangle=-45, headlabel="False"] ;
365 [label="work_type <= 0.553\ngini = 0.154\nsamples = 119\nvalue = [109, 10]\nclass = 1", fillcolor="#e78d4b"] ;
364 -> 365 ;
366 [label="id <= 31864.175\ngini = 0.266\nsamples = 19\nvalue = [16, 3]\nclass = 1", fillcolor="#ea995e"] ;
365 -> 366 ;
367 [label="bmi <= 34.553\ngini = 0.469\nsamples = 8\nvalue = [5, 3]\nclass = 1", fillcolor="#f5cdb0"] ;
366 -> 367 ;
368 [label="gender <= 0.751\ngini = 0.375\nsamples = 4\nvalue = [1, 3]\nclass = 0", fillcolor="#7bbeee"] ;
367 -> 368 ;
369 [label="bmi <= 28.371\ngini = 0.5\nsamples = 2\nvalue = [1, 1]\nclass = 1", fillcolor="#ffffff"] ;
368 -> 369 ;
370 [label="gini = 0.0\nsamples = 1\nvalue = [0, 1]\nclass = 0", fillcolor="#399de5"] ;
369 -> 370 ;
371 [label="gini = 0.0\nsamples = 1\nvalue = [1, 0]\nclass = 1", fillcolor="#e58139"] ;
369 -> 371 ;
372 [label="gini = 0.0\nsamples = 2\nvalue = [0, 2]\nclass = 0", fillcolor="#399de5"] ;
368 -> 372 ;
373 [label="gini = 0.0\nsamples = 4\nvalue = [4, 0]\nclass = 1", fillcolor="#e58139"] ;
367 -> 373 ;
374 [label="gini = 0.0\nsamples = 11\nvalue = [11, 0]\nclass = 1", fillcolor="#e58139"] ;
366 -> 374 ;
375 [label="heart_disease <= 0.485\ngini = 0.13\nsamples = 100\nvalue = [93, 7]\nclass = 1", fillcolor="#e78a48"] ;
365 -> 375 ;
376 [label="id <= 39063.524\ngini = 0.117\nsamples = 96\nvalue = [90, 6]\nclass = 1", fillcolor="#e78946"] ;
375 -> 376 ;
377 [label="avg_glucose_level <= 91.441\ngini = 0.035\nsamples = 56\nvalue = [55, 1]\nclass = 1", fillcolor="#e5833d"] ;
376 -> 377 ;
378 [label="avg_glucose_level <= 62.975\ngini = 0.095\nsamples = 20\nvalue = [19, 1]\nclass = 1", fillcolor="#e68843"] ;
377 -> 378 ;
379 [label="smoking_status <= 2.176\ngini = 0.444\nsamples = 3\nvalue = [2, 1]\nclass = 1", fillcolor="#f2c09c"] ;
378 -> 379 ;
380 [label="gini = 0.0\nsamples = 2\nvalue = [2, 0]\nclass = 1", fillcolor="#e58139"] ;
379 -> 380 ;
381 [label="gini = 0.0\nsamples = 1\nvalue = [0, 1]\nclass = 0", fillcolor="#399de5"] ;
379 -> 381 ;
382 [label="gini = 0.0\nsamples = 17\nvalue = [17, 0]\nclass = 1", fillcolor="#e58139"] ;
378 -> 382 ;
383 [label="gini = 0.0\nsamples = 36\nvalue = [36, 0]\nclass = 1", fillcolor="#e58139"] ;
377 -> 383 ;
384 [label="Residence_type <= 0.969\ngini = 0.219\nsamples = 40\nvalue = [35, 5]\nclass = 1", fillcolor="#e99355"] ;
376 -> 384 ;
385 [label="id <= 62536.14\ngini = 0.346\nsamples = 18\nvalue = [14, 4]\nclass = 1", fillcolor="#eca572"] ;
384 -> 385 ;
386 [label="bmi <= 32.395\ngini = 0.444\nsamples = 12\nvalue = [8, 4]\nclass = 1", fillcolor="#f2c09c"] ;
385 -> 386 ;
387 [label="gini = 0.0\nsamples = 3\nvalue = [0, 3]\nclass = 0", fillcolor="#399de5"] ;
386 -> 387 ;
388 [label="gender <= 0.607\ngini = 0.198\nsamples = 9\nvalue = [8, 1]\nclass = 1", fillcolor="#e89152"] ;
386 -> 388 ;
389 [label="gini = 0.0\nsamples = 6\nvalue = [6, 0]\nclass = 1", fillcolor="#e58139"] ;
388 -> 389 ;
390 [label="avg_glucose_level <= 179.857\ngini = 0.444\nsamples = 3\nvalue = [2, 1]\nclass = 1", fillcolor="#f2c09c"] ;
388 -> 390 ;
391 [label="gini = 0.0\nsamples = 2\nvalue = [2, 0]\nclass = 1", fillcolor="#e58139"] ;
390 -> 391 ;
392 [label="gini = 0.0\nsamples = 1\nvalue = [0, 1]\nclass = 0", fillcolor="#399de5"] ;
390 -> 392 ;
393 [label="gini = 0.0\nsamples = 6\nvalue = [6, 0]\nclass = 1", fillcolor="#e58139"] ;
385 -> 393 ;
394 [label="bmi <= 40.777\ngini = 0.087\nsamples = 22\nvalue = [21, 1]\nclass = 1", fillcolor="#e68742"] ;
384 -> 394 ;
395 [label="gini = 0.0\nsamples = 18\nvalue = [18, 0]\nclass = 1", fillcolor="#e58139"] ;
394 -> 395 ;
396 [label="bmi <= 42.097\ngini = 0.375\nsamples = 4\nvalue = [3, 1]\nclass = 1", fillcolor="#eeab7b"] ;
394 -> 396 ;
397 [label="gini = 0.0\nsamples = 2\nvalue = [2, 0]\nclass = 1", fillcolor="#e58139"] ;
396 -> 397 ;
398 [label="avg_glucose_level <= 107.21\ngini = 0.5\nsamples = 2\nvalue = [1, 1]\nclass = 1", fillcolor="#ffffff"] ;
396 -> 398 ;
399 [label="gini = 0.0\nsamples = 1\nvalue = [1, 0]\nclass = 1", fillcolor="#e58139"] ;
398 -> 399 ;
400 [label="gini = 0.0\nsamples = 1\nvalue = [0, 1]\nclass = 0", fillcolor="#399de5"] ;
398 -> 400 ;
401 [label="smoking_status <= 1.071\ngini = 0.375\nsamples = 4\nvalue = [3, 1]\nclass = 1", fillcolor="#eeab7b"] ;
375 -> 401 ;
402 [label="gini = 0.0\nsamples = 3\nvalue = [3, 0]\nclass = 1", fillcolor="#e58139"] ;
401 -> 402 ;
403 [label="gini = 0.0\nsamples = 1\nvalue = [0, 1]\nclass = 0", fillcolor="#399de5"] ;
401 -> 403 ;
404 [label="ever_married <= 0.332\ngini = 0.335\nsamples = 108\nvalue = [85, 23]\nclass = 1", fillcolor="#eca36f"] ;
364 -> 404 ;
405 [label="gender <= 0.232\ngini = 0.346\nsamples = 9\nvalue = [2, 7]\nclass = 0", fillcolor="#72b9ec"] ;
404 -> 405 ;
406 [label="gini = 0.0\nsamples = 5\nvalue = [0, 5]\nclass = 0", fillcolor="#399de5"] ;
405 -> 406 ;
407 [label="avg_glucose_level <= 93.84\ngini = 0.5\nsamples = 4\nvalue = [2, 2]\nclass = 1", fillcolor="#ffffff"] ;
405 -> 407 ;
408 [label="gini = 0.0\nsamples = 2\nvalue = [2, 0]\nclass = 1", fillcolor="#e58139"] ;
407 -> 408 ;
409 [label="gini = 0.0\nsamples = 2\nvalue = [0, 2]\nclass = 0", fillcolor="#399de5"] ;
407 -> 409 ;
410 [label="smoking_status <= 0.948\ngini = 0.271\nsamples = 99\nvalue = [83, 16]\nclass = 1", fillcolor="#ea995f"] ;
404 -> 410 ;
411 [label="gini = 0.0\nsamples = 12\nvalue = [12, 0]\nclass = 1", fillcolor="#e58139"] ;
410 -> 411 ;
412 [label="id <= 16515.896\ngini = 0.3\nsamples = 87\nvalue = [71, 16]\nclass = 1", fillcolor="#eb9d66"] ;
410 -> 412 ;
413 [label="age <= 78.023\ngini = 0.432\nsamples = 19\nvalue = [13, 6]\nclass = 1", fillcolor="#f1bb94"] ;
412 -> 413 ;
414 [label="heart_disease <= 0.85\ngini = 0.32\nsamples = 15\nvalue = [12, 3]\nclass = 1", fillcolor="#eca06a"] ;
413 -> 414 ;
415 [label="id <= 2152.933\ngini = 0.397\nsamples = 11\nvalue = [8, 3]\nclass = 1", fillcolor="#efb083"] ;
414 -> 415 ;
416 [label="gini = 0.0\nsamples = 2\nvalue = [2, 0]\nclass = 1", fillcolor="#e58139"] ;
415 -> 416 ;
417 [label="work_type <= 2.706\ngini = 0.444\nsamples = 9\nvalue = [6, 3]\nclass = 1", fillcolor="#f2c09c"] ;
415 -> 417 ;
418 [label="smoking_status <= 1.534\ngini = 0.278\nsamples = 6\nvalue = [5, 1]\nclass = 1", fillcolor="#ea9a61"] ;
417 -> 418 ;
419 [label="gini = 0.0\nsamples = 2\nvalue = [2, 0]\nclass = 1", fillcolor="#e58139"] ;
418 -> 419 ;
420 [label="avg_glucose_level <= 70.854\ngini = 0.375\nsamples = 4\nvalue = [3, 1]\nclass = 1", fillcolor="#eeab7b"] ;
418 -> 420 ;
421 [label="gini = 0.0\nsamples = 1\nvalue = [0, 1]\nclass = 0", fillcolor="#399de5"] ;
420 -> 421 ;
422 [label="gini = 0.0\nsamples = 3\nvalue = [3, 0]\nclass = 1", fillcolor="#e58139"] ;
420 -> 422 ;
423 [label="bmi <= 32.353\ngini = 0.444\nsamples = 3\nvalue = [1, 2]\nclass = 0", fillcolor="#9ccef2"] ;
417 -> 423 ;
424 [label="gini = 0.0\nsamples = 1\nvalue = [1, 0]\nclass = 1", fillcolor="#e58139"] ;
423 -> 424 ;
425 [label="gini = 0.0\nsamples = 2\nvalue = [0, 2]\nclass = 0", fillcolor="#399de5"] ;
423 -> 425 ;
426 [label="gini = 0.0\nsamples = 4\nvalue = [4, 0]\nclass = 1", fillcolor="#e58139"] ;
414 -> 426 ;
427 [label="id <= 12483.511\ngini = 0.375\nsamples = 4\nvalue = [1, 3]\nclass = 0", fillcolor="#7bbeee"] ;
413 -> 427 ;
428 [label="gini = 0.0\nsamples = 3\nvalue = [0, 3]\nclass = 0", fillcolor="#399de5"] ;
427 -> 428 ;
429 [label="gini = 0.0\nsamples = 1\nvalue = [1, 0]\nclass = 1", fillcolor="#e58139"] ;
427 -> 429 ;
430 [label="bmi <= 25.89\ngini = 0.251\nsamples = 68\nvalue = [58, 10]\nclass = 1", fillcolor="#e9975b"] ;
412 -> 430 ;
431 [label="avg_glucose_level <= 100.202\ngini = 0.42\nsamples = 10\nvalue = [7, 3]\nclass = 1", fillcolor="#f0b78e"] ;
430 -> 431 ;
432 [label="Residence_type <= 0.667\ngini = 0.5\nsamples = 6\nvalue = [3, 3]\nclass = 1", fillcolor="#ffffff"] ;
431 -> 432 ;
433 [label="bmi <= 20.591\ngini = 0.375\nsamples = 4\nvalue = [1, 3]\nclass = 0", fillcolor="#7bbeee"] ;
432 -> 433 ;
434 [label="gini = 0.0\nsamples = 1\nvalue = [1, 0]\nclass = 1", fillcolor="#e58139"] ;
433 -> 434 ;
435 [label="gini = 0.0\nsamples = 3\nvalue = [0, 3]\nclass = 0", fillcolor="#399de5"] ;
433 -> 435 ;
436 [label="gini = 0.0\nsamples = 2\nvalue = [2, 0]\nclass = 1", fillcolor="#e58139"] ;
432 -> 436 ;
437 [label="gini = 0.0\nsamples = 4\nvalue = [4, 0]\nclass = 1", fillcolor="#e58139"] ;
431 -> 437 ;
438 [label="bmi <= 45.439\ngini = 0.212\nsamples = 58\nvalue = [51, 7]\nclass = 1", fillcolor="#e99254"] ;
430 -> 438 ;
439 [label="Residence_type <= 0.305\ngini = 0.188\nsamples = 57\nvalue = [51, 6]\nclass = 1", fillcolor="#e89050"] ;
438 -> 439 ;
440 [label="gini = 0.0\nsamples = 28\nvalue = [28, 0]\nclass = 1", fillcolor="#e58139"] ;
439 -> 440 ;
441 [label="avg_glucose_level <= 246.769\ngini = 0.328\nsamples = 29\nvalue = [23, 6]\nclass = 1", fillcolor="#eca26d"] ;
439 -> 441 ;
442 [label="heart_disease <= 0.918\ngini = 0.26\nsamples = 26\nvalue = [22, 4]\nclass = 1", fillcolor="#ea985d"] ;
441 -> 442 ;
443 [label="smoking_status <= 1.158\ngini = 0.308\nsamples = 21\nvalue = [17, 4]\nclass = 1", fillcolor="#eb9f68"] ;
442 -> 443 ;
444 [label="avg_glucose_level <= 134.15\ngini = 0.165\nsamples = 11\nvalue = [10, 1]\nclass = 1", fillcolor="#e88e4d"] ;
443 -> 444 ;
445 [label="gini = 0.0\nsamples = 6\nvalue = [6, 0]\nclass = 1", fillcolor="#e58139"] ;
444 -> 445 ;
446 [label="bmi <= 29.681\ngini = 0.32\nsamples = 5\nvalue = [4, 1]\nclass = 1", fillcolor="#eca06a"] ;
444 -> 446 ;
447 [label="avg_glucose_level <= 231.735\ngini = 0.5\nsamples = 2\nvalue = [1, 1]\nclass = 1", fillcolor="#ffffff"] ;
446 -> 447 ;
448 [label="gini = 0.0\nsamples = 1\nvalue = [0, 1]\nclass = 0", fillcolor="#399de5"] ;
447 -> 448 ;
449 [label="gini = 0.0\nsamples = 1\nvalue = [1, 0]\nclass = 1", fillcolor="#e58139"] ;
447 -> 449 ;
450 [label="gini = 0.0\nsamples = 3\nvalue = [3, 0]\nclass = 1", fillcolor="#e58139"] ;
446 -> 450 ;
451 [label="work_type <= 2.261\ngini = 0.42\nsamples = 10\nvalue = [7, 3]\nclass = 1", fillcolor="#f0b78e"] ;
443 -> 451 ;
452 [label="id <= 21962.665\ngini = 0.245\nsamples = 7\nvalue = [6, 1]\nclass = 1", fillcolor="#e9965a"] ;
451 -> 452 ;
453 [label="gini = 0.0\nsamples = 1\nvalue = [0, 1]\nclass = 0", fillcolor="#399de5"] ;
452 -> 453 ;
454 [label="gini = 0.0\nsamples = 6\nvalue = [6, 0]\nclass = 1", fillcolor="#e58139"] ;
452 -> 454 ;
455 [label="id <= 59316.761\ngini = 0.444\nsamples = 3\nvalue = [1, 2]\nclass = 0", fillcolor="#9ccef2"] ;
451 -> 455 ;
456 [label="gini = 0.0\nsamples = 2\nvalue = [0, 2]\nclass = 0", fillcolor="#399de5"] ;
455 -> 456 ;
457 [label="gini = 0.0\nsamples = 1\nvalue = [1, 0]\nclass = 1", fillcolor="#e58139"] ;
455 -> 457 ;
458 [label="gini = 0.0\nsamples = 5\nvalue = [5, 0]\nclass = 1", fillcolor="#e58139"] ;
442 -> 458 ;
459 [label="heart_disease <= 0.128\ngini = 0.444\nsamples = 3\nvalue = [1, 2]\nclass = 0", fillcolor="#9ccef2"] ;
441 -> 459 ;
460 [label="gini = 0.0\nsamples = 1\nvalue = [1, 0]\nclass = 1", fillcolor="#e58139"] ;
459 -> 460 ;
461 [label="gini = 0.0\nsamples = 2\nvalue = [0, 2]\nclass = 0", fillcolor="#399de5"] ;
459 -> 461 ;
462 [label="gini = 0.0\nsamples = 1\nvalue = [0, 1]\nclass = 0", fillcolor="#399de5"] ;
438 -> 462 ;
}