digraph Tree {
node [shape=box, style="filled", color="black", fontname="helvetica"] ;
edge [fontname="helvetica"] ;
0 [label="age <= 0.811\ngini = 0.077\nsamples = 2454\nvalue = [2356, 98]\nclass = 1", fillcolor="#e68641"] ;
1 [label="age <= 0.579\ngini = 0.039\nsamples = 2052\nvalue = [2011, 41]\nclass = 1", fillcolor="#e6843d"] ;
0 -> 1 [labeldistance=2.5, labelangle=45, headlabel="True"] ;
2 [label="age <= 0.457\ngini = 0.009\nsamples = 1353\nvalue = [1347, 6]\nclass = 1", fillcolor="#e5823a"] ;
1 -> 2 ;
3 [label="smoking_status <= 2.5\ngini = 0.002\nsamples = 994\nvalue = [993, 1]\nclass = 1", fillcolor="#e58139"] ;
2 -> 3 ;
4 [label="gini = 0.0\nsamples = 883\nvalue = [883, 0]\nclass = 1", fillcolor="#e58139"] ;
3 -> 4 ;
5 [label="avg_glucose_level <= 0.097\ngini = 0.018\nsamples = 111\nvalue = [110, 1]\nclass = 1", fillcolor="#e5823b"] ;
3 -> 5 ;
6 [label="avg_glucose_level <= 0.096\ngini = 0.067\nsamples = 29\nvalue = [28, 1]\nclass = 1", fillcolor="#e68640"] ;
5 -> 6 ;
7 [label="gini = 0.0\nsamples = 28\nvalue = [28, 0]\nclass = 1", fillcolor="#e58139"] ;
6 -> 7 ;
8 [label="gini = 0.0\nsamples = 1\nvalue = [0, 1]\nclass = 0", fillcolor="#399de5"] ;
6 -> 8 ;
9 [label="gini = 0.0\nsamples = 82\nvalue = [82, 0]\nclass = 1", fillcolor="#e58139"] ;
5 -> 9 ;
10 [label="avg_glucose_level <= 0.014\ngini = 0.027\nsamples = 359\nvalue = [354, 5]\nclass = 1", fillcolor="#e5833c"] ;
2 -> 10 ;
11 [label="age <= 0.493\ngini = 0.245\nsamples = 7\nvalue = [6, 1]\nclass = 1", fillcolor="#e9965a"] ;
10 -> 11 ;
12 [label="gini = 0.0\nsamples = 1\nvalue = [0, 1]\nclass = 0", fillcolor="#399de5"] ;
11 -> 12 ;
13 [label="gini = 0.0\nsamples = 6\nvalue = [6, 0]\nclass = 1", fillcolor="#e58139"] ;
11 -> 13 ;
14 [label="avg_glucose_level <= 0.147\ngini = 0.022\nsamples = 352\nvalue = [348, 4]\nclass = 1", fillcolor="#e5823b"] ;
10 -> 14 ;
15 [label="avg_glucose_level <= 0.147\ngini = 0.052\nsamples = 151\nvalue = [147, 4]\nclass = 1", fillcolor="#e6843e"] ;
14 -> 15 ;
16 [label="age <= 0.481\ngini = 0.039\nsamples = 150\nvalue = [147, 3]\nclass = 1", fillcolor="#e6843d"] ;
15 -> 16 ;
17 [label="avg_glucose_level <= 0.123\ngini = 0.142\nsamples = 26\nvalue = [24, 2]\nclass = 1", fillcolor="#e78c49"] ;
16 -> 17 ;
18 [label="gini = 0.0\nsamples = 17\nvalue = [17, 0]\nclass = 1", fillcolor="#e58139"] ;
17 -> 18 ;
19 [label="avg_glucose_level <= 0.131\ngini = 0.346\nsamples = 9\nvalue = [7, 2]\nclass = 1", fillcolor="#eca572"] ;
17 -> 19 ;
20 [label="bmi <= 0.151\ngini = 0.444\nsamples = 3\nvalue = [1, 2]\nclass = 0", fillcolor="#9ccef2"] ;
19 -> 20 ;
21 [label="gini = 0.0\nsamples = 1\nvalue = [1, 0]\nclass = 1", fillcolor="#e58139"] ;
20 -> 21 ;
22 [label="gini = 0.0\nsamples = 2\nvalue = [0, 2]\nclass = 0", fillcolor="#399de5"] ;
20 -> 22 ;
23 [label="gini = 0.0\nsamples = 6\nvalue = [6, 0]\nclass = 1", fillcolor="#e58139"] ;
19 -> 23 ;
24 [label="avg_glucose_level <= 0.043\ngini = 0.016\nsamples = 124\nvalue = [123, 1]\nclass = 1", fillcolor="#e5823b"] ;
16 -> 24 ;
25 [label="avg_glucose_level <= 0.042\ngini = 0.111\nsamples = 17\nvalue = [16, 1]\nclass = 1", fillcolor="#e78945"] ;
24 -> 25 ;
26 [label="gini = 0.0\nsamples = 16\nvalue = [16, 0]\nclass = 1", fillcolor="#e58139"] ;
25 -> 26 ;
27 [label="gini = 0.0\nsamples = 1\nvalue = [0, 1]\nclass = 0", fillcolor="#399de5"] ;
25 -> 27 ;
28 [label="gini = 0.0\nsamples = 107\nvalue = [107, 0]\nclass = 1", fillcolor="#e58139"] ;
24 -> 28 ;
29 [label="gini = 0.0\nsamples = 1\nvalue = [0, 1]\nclass = 0", fillcolor="#399de5"] ;
15 -> 29 ;
30 [label="gini = 0.0\nsamples = 201\nvalue = [201, 0]\nclass = 1", fillcolor="#e58139"] ;
14 -> 30 ;
31 [label="heart_disease <= 0.5\ngini = 0.095\nsamples = 699\nvalue = [664, 35]\nclass = 1", fillcolor="#e68843"] ;
1 -> 31 ;
32 [label="hypertension <= 0.5\ngini = 0.084\nsamples = 659\nvalue = [630, 29]\nclass = 1", fillcolor="#e68742"] ;
31 -> 32 ;
33 [label="id <= 1383.5\ngini = 0.071\nsamples = 567\nvalue = [546, 21]\nclass = 1", fillcolor="#e68641"] ;
32 -> 33 ;
34 [label="id <= 1260.5\ngini = 0.32\nsamples = 5\nvalue = [4, 1]\nclass = 1", fillcolor="#eca06a"] ;
33 -> 34 ;
35 [label="gini = 0.0\nsamples = 4\nvalue = [4, 0]\nclass = 1", fillcolor="#e58139"] ;
34 -> 35 ;
36 [label="gini = 0.0\nsamples = 1\nvalue = [0, 1]\nclass = 0", fillcolor="#399de5"] ;
34 -> 36 ;
37 [label="avg_glucose_level <= 0.134\ngini = 0.069\nsamples = 562\nvalue = [542, 20]\nclass = 1", fillcolor="#e68640"] ;
33 -> 37 ;
38 [label="bmi <= 0.126\ngini = 0.029\nsamples = 202\nvalue = [199, 3]\nclass = 1", fillcolor="#e5833c"] ;
37 -> 38 ;
39 [label="age <= 0.597\ngini = 0.245\nsamples = 14\nvalue = [12, 2]\nclass = 1", fillcolor="#e9965a"] ;
38 -> 39 ;
40 [label="gini = 0.0\nsamples = 1\nvalue = [0, 1]\nclass = 0", fillcolor="#399de5"] ;
39 -> 40 ;
41 [label="age <= 0.786\ngini = 0.142\nsamples = 13\nvalue = [12, 1]\nclass = 1", fillcolor="#e78c49"] ;
39 -> 41 ;
42 [label="gini = 0.0\nsamples = 12\nvalue = [12, 0]\nclass = 1", fillcolor="#e58139"] ;
41 -> 42 ;
43 [label="gini = 0.0\nsamples = 1\nvalue = [0, 1]\nclass = 0", fillcolor="#399de5"] ;
41 -> 43 ;
44 [label="bmi <= 0.355\ngini = 0.011\nsamples = 188\nvalue = [187, 1]\nclass = 1", fillcolor="#e5823a"] ;
38 -> 44 ;
45 [label="gini = 0.0\nsamples = 171\nvalue = [171, 0]\nclass = 1", fillcolor="#e58139"] ;
44 -> 45 ;
46 [label="bmi <= 0.359\ngini = 0.111\nsamples = 17\nvalue = [16, 1]\nclass = 1", fillcolor="#e78945"] ;
44 -> 46 ;
47 [label="gini = 0.0\nsamples = 1\nvalue = [0, 1]\nclass = 0", fillcolor="#399de5"] ;
46 -> 47 ;
48 [label="gini = 0.0\nsamples = 16\nvalue = [16, 0]\nclass = 1", fillcolor="#e58139"] ;
46 -> 48 ;
49 [label="avg_glucose_level <= 0.134\ngini = 0.09\nsamples = 360\nvalue = [343, 17]\nclass = 1", fillcolor="#e68743"] ;
37 -> 49 ;
50 [label="gini = 0.0\nsamples = 1\nvalue = [0, 1]\nclass = 0", fillcolor="#399de5"] ;
49 -> 50 ;
51 [label="bmi <= 0.183\ngini = 0.085\nsamples = 359\nvalue = [343, 16]\nclass = 1", fillcolor="#e68742"] ;
49 -> 51 ;
52 [label="gini = 0.0\nsamples = 76\nvalue = [76, 0]\nclass = 1", fillcolor="#e58139"] ;
51 -> 52 ;
53 [label="bmi <= 0.185\ngini = 0.107\nsamples = 283\nvalue = [267, 16]\nclass = 1", fillcolor="#e78945"] ;
51 -> 53 ;
54 [label="age <= 0.738\ngini = 0.5\nsamples = 4\nvalue = [2, 2]\nclass = 1", fillcolor="#ffffff"] ;
53 -> 54 ;
55 [label="gini = 0.0\nsamples = 2\nvalue = [0, 2]\nclass = 0", fillcolor="#399de5"] ;
54 -> 55 ;
56 [label="gini = 0.0\nsamples = 2\nvalue = [2, 0]\nclass = 1", fillcolor="#e58139"] ;
54 -> 56 ;
57 [label="age <= 0.689\ngini = 0.095\nsamples = 279\nvalue = [265, 14]\nclass = 1", fillcolor="#e68843"] ;
53 -> 57 ;
58 [label="smoking_status <= 2.5\ngini = 0.054\nsamples = 143\nvalue = [139, 4]\nclass = 1", fillcolor="#e6853f"] ;
57 -> 58 ;
59 [label="gini = 0.0\nsamples = 112\nvalue = [112, 0]\nclass = 1", fillcolor="#e58139"] ;
58 -> 59 ;
60 [label="Residence_type <= 0.5\ngini = 0.225\nsamples = 31\nvalue = [27, 4]\nclass = 1", fillcolor="#e99456"] ;
58 -> 60 ;
61 [label="bmi <= 0.243\ngini = 0.355\nsamples = 13\nvalue = [10, 3]\nclass = 1", fillcolor="#eda774"] ;
60 -> 61 ;
62 [label="avg_glucose_level <= 0.188\ngini = 0.5\nsamples = 4\nvalue = [2, 2]\nclass = 1", fillcolor="#ffffff"] ;
61 -> 62 ;
63 [label="gini = 0.0\nsamples = 2\nvalue = [2, 0]\nclass = 1", fillcolor="#e58139"] ;
62 -> 63 ;
64 [label="gini = 0.0\nsamples = 2\nvalue = [0, 2]\nclass = 0", fillcolor="#399de5"] ;
62 -> 64 ;
65 [label="work_type <= 2.5\ngini = 0.198\nsamples = 9\nvalue = [8, 1]\nclass = 1", fillcolor="#e89152"] ;
61 -> 65 ;
66 [label="gini = 0.0\nsamples = 6\nvalue = [6, 0]\nclass = 1", fillcolor="#e58139"] ;
65 -> 66 ;
67 [label="bmi <= 0.322\ngini = 0.444\nsamples = 3\nvalue = [2, 1]\nclass = 1", fillcolor="#f2c09c"] ;
65 -> 67 ;
68 [label="gini = 0.0\nsamples = 2\nvalue = [2, 0]\nclass = 1", fillcolor="#e58139"] ;
67 -> 68 ;
69 [label="gini = 0.0\nsamples = 1\nvalue = [0, 1]\nclass = 0", fillcolor="#399de5"] ;
67 -> 69 ;
70 [label="id <= 58697.0\ngini = 0.105\nsamples = 18\nvalue = [17, 1]\nclass = 1", fillcolor="#e78845"] ;
60 -> 70 ;
71 [label="gini = 0.0\nsamples = 14\nvalue = [14, 0]\nclass = 1", fillcolor="#e58139"] ;
70 -> 71 ;
72 [label="id <= 60323.0\ngini = 0.375\nsamples = 4\nvalue = [3, 1]\nclass = 1", fillcolor="#eeab7b"] ;
70 -> 72 ;
73 [label="gini = 0.0\nsamples = 1\nvalue = [0, 1]\nclass = 0", fillcolor="#399de5"] ;
72 -> 73 ;
74 [label="gini = 0.0\nsamples = 3\nvalue = [3, 0]\nclass = 1", fillcolor="#e58139"] ;
72 -> 74 ;
75 [label="bmi <= 0.302\ngini = 0.136\nsamples = 136\nvalue = [126, 10]\nclass = 1", fillcolor="#e78b49"] ;
57 -> 75 ;
76 [label="bmi <= 0.206\ngini = 0.091\nsamples = 105\nvalue = [100, 5]\nclass = 1", fillcolor="#e68743"] ;
75 -> 76 ;
77 [label="avg_glucose_level <= 0.771\ngini = 0.255\nsamples = 20\nvalue = [17, 3]\nclass = 1", fillcolor="#ea975c"] ;
76 -> 77 ;
78 [label="id <= 62035.5\ngini = 0.188\nsamples = 19\nvalue = [17, 2]\nclass = 1", fillcolor="#e89050"] ;
77 -> 78 ;
79 [label="bmi <= 0.204\ngini = 0.111\nsamples = 17\nvalue = [16, 1]\nclass = 1", fillcolor="#e78945"] ;
78 -> 79 ;
80 [label="gini = 0.0\nsamples = 15\nvalue = [15, 0]\nclass = 1", fillcolor="#e58139"] ;
79 -> 80 ;
81 [label="id <= 25804.0\ngini = 0.5\nsamples = 2\nvalue = [1, 1]\nclass = 1", fillcolor="#ffffff"] ;
79 -> 81 ;
82 [label="gini = 0.0\nsamples = 1\nvalue = [1, 0]\nclass = 1", fillcolor="#e58139"] ;
81 -> 82 ;
83 [label="gini = 0.0\nsamples = 1\nvalue = [0, 1]\nclass = 0", fillcolor="#399de5"] ;
81 -> 83 ;
84 [label="avg_glucose_level <= 0.558\ngini = 0.5\nsamples = 2\nvalue = [1, 1]\nclass = 1", fillcolor="#ffffff"] ;
78 -> 84 ;
85 [label="gini = 0.0\nsamples = 1\nvalue = [0, 1]\nclass = 0", fillcolor="#399de5"] ;
84 -> 85 ;
86 [label="gini = 0.0\nsamples = 1\nvalue = [1, 0]\nclass = 1", fillcolor="#e58139"] ;
84 -> 86 ;
87 [label="gini = 0.0\nsamples = 1\nvalue = [0, 1]\nclass = 0", fillcolor="#399de5"] ;
77 -> 87 ;
88 [label="ever_married <= 0.5\ngini = 0.046\nsamples = 85\nvalue = [83, 2]\nclass = 1", fillcolor="#e6843e"] ;
76 -> 88 ;
89 [label="id <= 46687.0\ngini = 0.219\nsamples = 8\nvalue = [7, 1]\nclass = 1", fillcolor="#e99355"] ;
88 -> 89 ;
90 [label="gini = 0.0\nsamples = 6\nvalue = [6, 0]\nclass = 1", fillcolor="#e58139"] ;
89 -> 90 ;
91 [label="avg_glucose_level <= 0.171\ngini = 0.5\nsamples = 2\nvalue = [1, 1]\nclass = 1", fillcolor="#ffffff"] ;
89 -> 91 ;
92 [label="gini = 0.0\nsamples = 1\nvalue = [1, 0]\nclass = 1", fillcolor="#e58139"] ;
91 -> 92 ;
93 [label="gini = 0.0\nsamples = 1\nvalue = [0, 1]\nclass = 0", fillcolor="#399de5"] ;
91 -> 93 ;
94 [label="id <= 64613.0\ngini = 0.026\nsamples = 77\nvalue = [76, 1]\nclass = 1", fillcolor="#e5833c"] ;
88 -> 94 ;
95 [label="gini = 0.0\nsamples = 68\nvalue = [68, 0]\nclass = 1", fillcolor="#e58139"] ;
94 -> 95 ;
96 [label="id <= 66633.5\ngini = 0.198\nsamples = 9\nvalue = [8, 1]\nclass = 1", fillcolor="#e89152"] ;
94 -> 96 ;
97 [label="gini = 0.0\nsamples = 1\nvalue = [0, 1]\nclass = 0", fillcolor="#399de5"] ;
96 -> 97 ;
98 [label="gini = 0.0\nsamples = 8\nvalue = [8, 0]\nclass = 1", fillcolor="#e58139"] ;
96 -> 98 ;
99 [label="bmi <= 0.326\ngini = 0.271\nsamples = 31\nvalue = [26, 5]\nclass = 1", fillcolor="#ea995f"] ;
75 -> 99 ;
100 [label="gender <= 0.5\ngini = 0.444\nsamples = 12\nvalue = [8, 4]\nclass = 1", fillcolor="#f2c09c"] ;
99 -> 100 ;
101 [label="age <= 0.75\ngini = 0.375\nsamples = 4\nvalue = [1, 3]\nclass = 0", fillcolor="#7bbeee"] ;
100 -> 101 ;
102 [label="gini = 0.0\nsamples = 3\nvalue = [0, 3]\nclass = 0", fillcolor="#399de5"] ;
101 -> 102 ;
103 [label="gini = 0.0\nsamples = 1\nvalue = [1, 0]\nclass = 1", fillcolor="#e58139"] ;
101 -> 103 ;
104 [label="smoking_status <= 0.5\ngini = 0.219\nsamples = 8\nvalue = [7, 1]\nclass = 1", fillcolor="#e99355"] ;
100 -> 104 ;
105 [label="gini = 0.0\nsamples = 1\nvalue = [0, 1]\nclass = 0", fillcolor="#399de5"] ;
104 -> 105 ;
106 [label="gini = 0.0\nsamples = 7\nvalue = [7, 0]\nclass = 1", fillcolor="#e58139"] ;
104 -> 106 ;
107 [label="id <= 17614.5\ngini = 0.1\nsamples = 19\nvalue = [18, 1]\nclass = 1", fillcolor="#e68844"] ;
99 -> 107 ;
108 [label="id <= 12050.5\ngini = 0.444\nsamples = 3\nvalue = [2, 1]\nclass = 1", fillcolor="#f2c09c"] ;
107 -> 108 ;
109 [label="gini = 0.0\nsamples = 2\nvalue = [2, 0]\nclass = 1", fillcolor="#e58139"] ;
108 -> 109 ;
110 [label="gini = 0.0\nsamples = 1\nvalue = [0, 1]\nclass = 0", fillcolor="#399de5"] ;
108 -> 110 ;
111 [label="gini = 0.0\nsamples = 16\nvalue = [16, 0]\nclass = 1", fillcolor="#e58139"] ;
107 -> 111 ;
112 [label="bmi <= 0.203\ngini = 0.159\nsamples = 92\nvalue = [84, 8]\nclass = 1", fillcolor="#e78d4c"] ;
32 -> 112 ;
113 [label="bmi <= 0.194\ngini = 0.346\nsamples = 18\nvalue = [14, 4]\nclass = 1", fillcolor="#eca572"] ;
112 -> 113 ;
114 [label="avg_glucose_level <= 0.664\ngini = 0.133\nsamples = 14\nvalue = [13, 1]\nclass = 1", fillcolor="#e78b48"] ;
113 -> 114 ;
115 [label="gini = 0.0\nsamples = 12\nvalue = [12, 0]\nclass = 1", fillcolor="#e58139"] ;
114 -> 115 ;
116 [label="id <= 12614.0\ngini = 0.5\nsamples = 2\nvalue = [1, 1]\nclass = 1", fillcolor="#ffffff"] ;
114 -> 116 ;
117 [label="gini = 0.0\nsamples = 1\nvalue = [0, 1]\nclass = 0", fillcolor="#399de5"] ;
116 -> 117 ;
118 [label="gini = 0.0\nsamples = 1\nvalue = [1, 0]\nclass = 1", fillcolor="#e58139"] ;
116 -> 118 ;
119 [label="ever_married <= 0.5\ngini = 0.375\nsamples = 4\nvalue = [1, 3]\nclass = 0", fillcolor="#7bbeee"] ;
113 -> 119 ;
120 [label="gini = 0.0\nsamples = 1\nvalue = [1, 0]\nclass = 1", fillcolor="#e58139"] ;
119 -> 120 ;
121 [label="gini = 0.0\nsamples = 3\nvalue = [0, 3]\nclass = 0", fillcolor="#399de5"] ;
119 -> 121 ;
122 [label="age <= 0.628\ngini = 0.102\nsamples = 74\nvalue = [70, 4]\nclass = 1", fillcolor="#e68844"] ;
112 -> 122 ;
123 [label="id <= 64697.0\ngini = 0.337\nsamples = 14\nvalue = [11, 3]\nclass = 1", fillcolor="#eca36f"] ;
122 -> 123 ;
124 [label="bmi <= 0.238\ngini = 0.26\nsamples = 13\nvalue = [11, 2]\nclass = 1", fillcolor="#ea985d"] ;
123 -> 124 ;
125 [label="gender <= 0.5\ngini = 0.5\nsamples = 4\nvalue = [2, 2]\nclass = 1", fillcolor="#ffffff"] ;
124 -> 125 ;
126 [label="avg_glucose_level <= 0.539\ngini = 0.444\nsamples = 3\nvalue = [1, 2]\nclass = 0", fillcolor="#9ccef2"] ;
125 -> 126 ;
127 [label="gini = 0.0\nsamples = 2\nvalue = [0, 2]\nclass = 0", fillcolor="#399de5"] ;
126 -> 127 ;
128 [label="gini = 0.0\nsamples = 1\nvalue = [1, 0]\nclass = 1", fillcolor="#e58139"] ;
126 -> 128 ;
129 [label="gini = 0.0\nsamples = 1\nvalue = [1, 0]\nclass = 1", fillcolor="#e58139"] ;
125 -> 129 ;
130 [label="gini = 0.0\nsamples = 9\nvalue = [9, 0]\nclass = 1", fillcolor="#e58139"] ;
124 -> 130 ;
131 [label="gini = 0.0\nsamples = 1\nvalue = [0, 1]\nclass = 0", fillcolor="#399de5"] ;
123 -> 131 ;
132 [label="avg_glucose_level <= 0.865\ngini = 0.033\nsamples = 60\nvalue = [59, 1]\nclass = 1", fillcolor="#e5833c"] ;
122 -> 132 ;
133 [label="gini = 0.0\nsamples = 58\nvalue = [58, 0]\nclass = 1", fillcolor="#e58139"] ;
132 -> 133 ;
134 [label="bmi <= 0.333\ngini = 0.5\nsamples = 2\nvalue = [1, 1]\nclass = 1", fillcolor="#ffffff"] ;
132 -> 134 ;
135 [label="gini = 0.0\nsamples = 1\nvalue = [0, 1]\nclass = 0", fillcolor="#399de5"] ;
134 -> 135 ;
136 [label="gini = 0.0\nsamples = 1\nvalue = [1, 0]\nclass = 1", fillcolor="#e58139"] ;
134 -> 136 ;
137 [label="bmi <= 0.292\ngini = 0.255\nsamples = 40\nvalue = [34, 6]\nclass = 1", fillcolor="#ea975c"] ;
31 -> 137 ;
138 [label="avg_glucose_level <= 0.726\ngini = 0.124\nsamples = 30\nvalue = [28, 2]\nclass = 1", fillcolor="#e78a47"] ;
137 -> 138 ;
139 [label="gini = 0.0\nsamples = 25\nvalue = [25, 0]\nclass = 1", fillcolor="#e58139"] ;
138 -> 139 ;
140 [label="bmi <= 0.246\ngini = 0.48\nsamples = 5\nvalue = [3, 2]\nclass = 1", fillcolor="#f6d5bd"] ;
138 -> 140 ;
141 [label="id <= 19712.5\ngini = 0.444\nsamples = 3\nvalue = [1, 2]\nclass = 0", fillcolor="#9ccef2"] ;
140 -> 141 ;
142 [label="gini = 0.0\nsamples = 1\nvalue = [1, 0]\nclass = 1", fillcolor="#e58139"] ;
141 -> 142 ;
143 [label="gini = 0.0\nsamples = 2\nvalue = [0, 2]\nclass = 0", fillcolor="#399de5"] ;
141 -> 143 ;
144 [label="gini = 0.0\nsamples = 2\nvalue = [2, 0]\nclass = 1", fillcolor="#e58139"] ;
140 -> 144 ;
145 [label="id <= 37039.5\ngini = 0.48\nsamples = 10\nvalue = [6, 4]\nclass = 1", fillcolor="#f6d5bd"] ;
137 -> 145 ;
146 [label="avg_glucose_level <= 0.155\ngini = 0.32\nsamples = 5\nvalue = [1, 4]\nclass = 0", fillcolor="#6ab6ec"] ;
145 -> 146 ;
147 [label="gini = 0.0\nsamples = 1\nvalue = [1, 0]\nclass = 1", fillcolor="#e58139"] ;
146 -> 147 ;
148 [label="gini = 0.0\nsamples = 4\nvalue = [0, 4]\nclass = 0", fillcolor="#399de5"] ;
146 -> 148 ;
149 [label="gini = 0.0\nsamples = 5\nvalue = [5, 0]\nclass = 1", fillcolor="#e58139"] ;
145 -> 149 ;
150 [label="id <= 7606.0\ngini = 0.243\nsamples = 402\nvalue = [345, 57]\nclass = 1", fillcolor="#e9965a"] ;
0 -> 150 [labeldistance=2.5, labelangle=-45, headlabel="False"] ;
151 [label="id <= 7113.0\ngini = 0.416\nsamples = 44\nvalue = [31, 13]\nclass = 1", fillcolor="#f0b68c"] ;
150 -> 151 ;
152 [label="age <= 0.982\ngini = 0.387\nsamples = 42\nvalue = [31, 11]\nclass = 1", fillcolor="#eeae7f"] ;
151 -> 152 ;
153 [label="bmi <= 0.184\ngini = 0.332\nsamples = 38\nvalue = [30, 8]\nclass = 1", fillcolor="#eca36e"] ;
152 -> 153 ;
154 [label="gini = 0.0\nsamples = 9\nvalue = [9, 0]\nclass = 1", fillcolor="#e58139"] ;
153 -> 154 ;
155 [label="avg_glucose_level <= 0.74\ngini = 0.4\nsamples = 29\nvalue = [21, 8]\nclass = 1", fillcolor="#efb184"] ;
153 -> 155 ;
156 [label="avg_glucose_level <= 0.496\ngini = 0.454\nsamples = 23\nvalue = [15, 8]\nclass = 1", fillcolor="#f3c4a3"] ;
155 -> 156 ;
157 [label="work_type <= 1.0\ngini = 0.408\nsamples = 21\nvalue = [15, 6]\nclass = 1", fillcolor="#efb388"] ;
156 -> 157 ;
158 [label="gini = 0.0\nsamples = 1\nvalue = [0, 1]\nclass = 0", fillcolor="#399de5"] ;
157 -> 158 ;
159 [label="bmi <= 0.187\ngini = 0.375\nsamples = 20\nvalue = [15, 5]\nclass = 1", fillcolor="#eeab7b"] ;
157 -> 159 ;
160 [label="gini = 0.0\nsamples = 1\nvalue = [0, 1]\nclass = 0", fillcolor="#399de5"] ;
159 -> 160 ;
161 [label="avg_glucose_level <= 0.144\ngini = 0.332\nsamples = 19\nvalue = [15, 4]\nclass = 1", fillcolor="#eca36e"] ;
159 -> 161 ;
162 [label="gini = 0.0\nsamples = 6\nvalue = [6, 0]\nclass = 1", fillcolor="#e58139"] ;
161 -> 162 ;
163 [label="avg_glucose_level <= 0.168\ngini = 0.426\nsamples = 13\nvalue = [9, 4]\nclass = 1", fillcolor="#f1b991"] ;
161 -> 163 ;
164 [label="gini = 0.0\nsamples = 2\nvalue = [0, 2]\nclass = 0", fillcolor="#399de5"] ;
163 -> 164 ;
165 [label="age <= 0.86\ngini = 0.298\nsamples = 11\nvalue = [9, 2]\nclass = 1", fillcolor="#eb9d65"] ;
163 -> 165 ;
166 [label="gini = 0.0\nsamples = 6\nvalue = [6, 0]\nclass = 1", fillcolor="#e58139"] ;
165 -> 166 ;
167 [label="id <= 5965.5\ngini = 0.48\nsamples = 5\nvalue = [3, 2]\nclass = 1", fillcolor="#f6d5bd"] ;
165 -> 167 ;
168 [label="Residence_type <= 0.5\ngini = 0.444\nsamples = 3\nvalue = [1, 2]\nclass = 0", fillcolor="#9ccef2"] ;
167 -> 168 ;
169 [label="gini = 0.0\nsamples = 1\nvalue = [1, 0]\nclass = 1", fillcolor="#e58139"] ;
168 -> 169 ;
170 [label="gini = 0.0\nsamples = 2\nvalue = [0, 2]\nclass = 0", fillcolor="#399de5"] ;
168 -> 170 ;
171 [label="gini = 0.0\nsamples = 2\nvalue = [2, 0]\nclass = 1", fillcolor="#e58139"] ;
167 -> 171 ;
172 [label="gini = 0.0\nsamples = 2\nvalue = [0, 2]\nclass = 0", fillcolor="#399de5"] ;
156 -> 172 ;
173 [label="gini = 0.0\nsamples = 6\nvalue = [6, 0]\nclass = 1", fillcolor="#e58139"] ;
155 -> 173 ;
174 [label="gender <= 0.5\ngini = 0.375\nsamples = 4\nvalue = [1, 3]\nclass = 0", fillcolor="#7bbeee"] ;
152 -> 174 ;
175 [label="gini = 0.0\nsamples = 3\nvalue = [0, 3]\nclass = 0", fillcolor="#399de5"] ;
174 -> 175 ;
176 [label="gini = 0.0\nsamples = 1\nvalue = [1, 0]\nclass = 1", fillcolor="#e58139"] ;
174 -> 176 ;
177 [label="gini = 0.0\nsamples = 2\nvalue = [0, 2]\nclass = 0", fillcolor="#399de5"] ;
151 -> 177 ;
178 [label="avg_glucose_level <= 0.309\ngini = 0.216\nsamples = 358\nvalue = [314, 44]\nclass = 1", fillcolor="#e99355"] ;
150 -> 178 ;
179 [label="bmi <= 0.178\ngini = 0.15\nsamples = 245\nvalue = [225, 20]\nclass = 1", fillcolor="#e78c4b"] ;
178 -> 179 ;
180 [label="hypertension <= 0.5\ngini = 0.317\nsamples = 76\nvalue = [61, 15]\nclass = 1", fillcolor="#eba06a"] ;
179 -> 180 ;
181 [label="age <= 0.957\ngini = 0.239\nsamples = 65\nvalue = [56, 9]\nclass = 1", fillcolor="#e99559"] ;
180 -> 181 ;
182 [label="bmi <= 0.174\ngini = 0.087\nsamples = 44\nvalue = [42, 2]\nclass = 1", fillcolor="#e68742"] ;
181 -> 182 ;
183 [label="age <= 0.86\ngini = 0.05\nsamples = 39\nvalue = [38, 1]\nclass = 1", fillcolor="#e6843e"] ;
182 -> 183 ;
184 [label="age <= 0.847\ngini = 0.219\nsamples = 8\nvalue = [7, 1]\nclass = 1", fillcolor="#e99355"] ;
183 -> 184 ;
185 [label="gini = 0.0\nsamples = 7\nvalue = [7, 0]\nclass = 1", fillcolor="#e58139"] ;
184 -> 185 ;
186 [label="gini = 0.0\nsamples = 1\nvalue = [0, 1]\nclass = 0", fillcolor="#399de5"] ;
184 -> 186 ;
187 [label="gini = 0.0\nsamples = 31\nvalue = [31, 0]\nclass = 1", fillcolor="#e58139"] ;
183 -> 187 ;
188 [label="avg_glucose_level <= 0.185\ngini = 0.32\nsamples = 5\nvalue = [4, 1]\nclass = 1", fillcolor="#eca06a"] ;
182 -> 188 ;
189 [label="gini = 0.0\nsamples = 4\nvalue = [4, 0]\nclass = 1", fillcolor="#e58139"] ;
188 -> 189 ;
190 [label="gini = 0.0\nsamples = 1\nvalue = [0, 1]\nclass = 0", fillcolor="#399de5"] ;
188 -> 190 ;
191 [label="work_type <= 2.5\ngini = 0.444\nsamples = 21\nvalue = [14, 7]\nclass = 1", fillcolor="#f2c09c"] ;
181 -> 191 ;
192 [label="avg_glucose_level <= 0.048\ngini = 0.48\nsamples = 10\nvalue = [4, 6]\nclass = 0", fillcolor="#bddef6"] ;
191 -> 192 ;
193 [label="gini = 0.0\nsamples = 3\nvalue = [3, 0]\nclass = 1", fillcolor="#e58139"] ;
192 -> 193 ;
194 [label="smoking_status <= 1.5\ngini = 0.245\nsamples = 7\nvalue = [1, 6]\nclass = 0", fillcolor="#5aade9"] ;
192 -> 194 ;
195 [label="gini = 0.0\nsamples = 1\nvalue = [1, 0]\nclass = 1", fillcolor="#e58139"] ;
194 -> 195 ;
196 [label="gini = 0.0\nsamples = 6\nvalue = [0, 6]\nclass = 0", fillcolor="#399de5"] ;
194 -> 196 ;
197 [label="bmi <= 0.133\ngini = 0.165\nsamples = 11\nvalue = [10, 1]\nclass = 1", fillcolor="#e88e4d"] ;
191 -> 197 ;
198 [label="avg_glucose_level <= 0.14\ngini = 0.5\nsamples = 2\nvalue = [1, 1]\nclass = 1", fillcolor="#ffffff"] ;
197 -> 198 ;
199 [label="gini = 0.0\nsamples = 1\nvalue = [0, 1]\nclass = 0", fillcolor="#399de5"] ;
198 -> 199 ;
200 [label="gini = 0.0\nsamples = 1\nvalue = [1, 0]\nclass = 1", fillcolor="#e58139"] ;
198 -> 200 ;
201 [label="gini = 0.0\nsamples = 9\nvalue = [9, 0]\nclass = 1", fillcolor="#e58139"] ;
197 -> 201 ;
202 [label="bmi <= 0.123\ngini = 0.496\nsamples = 11\nvalue = [5, 6]\nclass = 0", fillcolor="#deeffb"] ;
180 -> 202 ;
203 [label="gini = 0.0\nsamples = 2\nvalue = [2, 0]\nclass = 1", fillcolor="#e58139"] ;
202 -> 203 ;
204 [label="avg_glucose_level <= 0.1\ngini = 0.444\nsamples = 9\nvalue = [3, 6]\nclass = 0", fillcolor="#9ccef2"] ;
202 -> 204 ;
205 [label="gini = 0.0\nsamples = 4\nvalue = [0, 4]\nclass = 0", fillcolor="#399de5"] ;
204 -> 205 ;
206 [label="ever_married <= 0.5\ngini = 0.48\nsamples = 5\nvalue = [3, 2]\nclass = 1", fillcolor="#f6d5bd"] ;
204 -> 206 ;
207 [label="gini = 0.0\nsamples = 2\nvalue = [0, 2]\nclass = 0", fillcolor="#399de5"] ;
206 -> 207 ;
208 [label="gini = 0.0\nsamples = 3\nvalue = [3, 0]\nclass = 1", fillcolor="#e58139"] ;
206 -> 208 ;
209 [label="age <= 0.982\ngini = 0.057\nsamples = 169\nvalue = [164, 5]\nclass = 1", fillcolor="#e6853f"] ;
179 -> 209 ;
210 [label="age <= 0.847\ngini = 0.041\nsamples = 145\nvalue = [142, 3]\nclass = 1", fillcolor="#e6843d"] ;
209 -> 210 ;
211 [label="ever_married <= 0.5\ngini = 0.121\nsamples = 31\nvalue = [29, 2]\nclass = 1", fillcolor="#e78a47"] ;
210 -> 211 ;
212 [label="age <= 0.835\ngini = 0.444\nsamples = 3\nvalue = [2, 1]\nclass = 1", fillcolor="#f2c09c"] ;
211 -> 212 ;
213 [label="gini = 0.0\nsamples = 1\nvalue = [0, 1]\nclass = 0", fillcolor="#399de5"] ;
212 -> 213 ;
214 [label="gini = 0.0\nsamples = 2\nvalue = [2, 0]\nclass = 1", fillcolor="#e58139"] ;
212 -> 214 ;
215 [label="smoking_status <= 0.5\ngini = 0.069\nsamples = 28\nvalue = [27, 1]\nclass = 1", fillcolor="#e68640"] ;
211 -> 215 ;
216 [label="bmi <= 0.212\ngini = 0.375\nsamples = 4\nvalue = [3, 1]\nclass = 1", fillcolor="#eeab7b"] ;
215 -> 216 ;
217 [label="gini = 0.0\nsamples = 1\nvalue = [0, 1]\nclass = 0", fillcolor="#399de5"] ;
216 -> 217 ;
218 [label="gini = 0.0\nsamples = 3\nvalue = [3, 0]\nclass = 1", fillcolor="#e58139"] ;
216 -> 218 ;
219 [label="gini = 0.0\nsamples = 24\nvalue = [24, 0]\nclass = 1", fillcolor="#e58139"] ;
215 -> 219 ;
220 [label="avg_glucose_level <= 0.236\ngini = 0.017\nsamples = 114\nvalue = [113, 1]\nclass = 1", fillcolor="#e5823b"] ;
210 -> 220 ;
221 [label="gini = 0.0\nsamples = 99\nvalue = [99, 0]\nclass = 1", fillcolor="#e58139"] ;
220 -> 221 ;
222 [label="avg_glucose_level <= 0.239\ngini = 0.124\nsamples = 15\nvalue = [14, 1]\nclass = 1", fillcolor="#e78a47"] ;
220 -> 222 ;
223 [label="gini = 0.0\nsamples = 1\nvalue = [0, 1]\nclass = 0", fillcolor="#399de5"] ;
222 -> 223 ;
224 [label="gini = 0.0\nsamples = 14\nvalue = [14, 0]\nclass = 1", fillcolor="#e58139"] ;
222 -> 224 ;
225 [label="id <= 13086.0\ngini = 0.153\nsamples = 24\nvalue = [22, 2]\nclass = 1", fillcolor="#e78c4b"] ;
209 -> 225 ;
226 [label="Residence_type <= 0.5\ngini = 0.5\nsamples = 2\nvalue = [1, 1]\nclass = 1", fillcolor="#ffffff"] ;
225 -> 226 ;
227 [label="gini = 0.0\nsamples = 1\nvalue = [0, 1]\nclass = 0", fillcolor="#399de5"] ;
226 -> 227 ;
228 [label="gini = 0.0\nsamples = 1\nvalue = [1, 0]\nclass = 1", fillcolor="#e58139"] ;
226 -> 228 ;
229 [label="avg_glucose_level <= 0.049\ngini = 0.087\nsamples = 22\nvalue = [21, 1]\nclass = 1", fillcolor="#e68742"] ;
225 -> 229 ;
230 [label="age <= 0.994\ngini = 0.32\nsamples = 5\nvalue = [4, 1]\nclass = 1", fillcolor="#eca06a"] ;
229 -> 230 ;
231 [label="gini = 0.0\nsamples = 4\nvalue = [4, 0]\nclass = 1", fillcolor="#e58139"] ;
230 -> 231 ;
232 [label="gini = 0.0\nsamples = 1\nvalue = [0, 1]\nclass = 0", fillcolor="#399de5"] ;
230 -> 232 ;
233 [label="gini = 0.0\nsamples = 17\nvalue = [17, 0]\nclass = 1", fillcolor="#e58139"] ;
229 -> 233 ;
234 [label="bmi <= 0.297\ngini = 0.335\nsamples = 113\nvalue = [89, 24]\nclass = 1", fillcolor="#eca36e"] ;
178 -> 234 ;
235 [label="avg_glucose_level <= 0.319\ngini = 0.291\nsamples = 96\nvalue = [79, 17]\nclass = 1", fillcolor="#eb9c64"] ;
234 -> 235 ;
236 [label="gini = 0.0\nsamples = 1\nvalue = [0, 1]\nclass = 0", fillcolor="#399de5"] ;
235 -> 236 ;
237 [label="heart_disease <= 0.5\ngini = 0.28\nsamples = 95\nvalue = [79, 16]\nclass = 1", fillcolor="#ea9b61"] ;
235 -> 237 ;
238 [label="id <= 31349.5\ngini = 0.21\nsamples = 67\nvalue = [59, 8]\nclass = 1", fillcolor="#e99254"] ;
237 -> 238 ;
239 [label="bmi <= 0.23\ngini = 0.375\nsamples = 20\nvalue = [15, 5]\nclass = 1", fillcolor="#eeab7b"] ;
238 -> 239 ;
240 [label="id <= 15991.5\ngini = 0.49\nsamples = 7\nvalue = [3, 4]\nclass = 0", fillcolor="#cee6f8"] ;
239 -> 240 ;
241 [label="gini = 0.0\nsamples = 2\nvalue = [2, 0]\nclass = 1", fillcolor="#e58139"] ;
240 -> 241 ;
242 [label="bmi <= 0.18\ngini = 0.32\nsamples = 5\nvalue = [1, 4]\nclass = 0", fillcolor="#6ab6ec"] ;
240 -> 242 ;
243 [label="age <= 0.927\ngini = 0.5\nsamples = 2\nvalue = [1, 1]\nclass = 1", fillcolor="#ffffff"] ;
242 -> 243 ;
244 [label="gini = 0.0\nsamples = 1\nvalue = [1, 0]\nclass = 1", fillcolor="#e58139"] ;
243 -> 244 ;
245 [label="gini = 0.0\nsamples = 1\nvalue = [0, 1]\nclass = 0", fillcolor="#399de5"] ;
243 -> 245 ;
246 [label="gini = 0.0\nsamples = 3\nvalue = [0, 3]\nclass = 0", fillcolor="#399de5"] ;
242 -> 246 ;
247 [label="bmi <= 0.281\ngini = 0.142\nsamples = 13\nvalue = [12, 1]\nclass = 1", fillcolor="#e78c49"] ;
239 -> 247 ;
248 [label="gini = 0.0\nsamples = 12\nvalue = [12, 0]\nclass = 1", fillcolor="#e58139"] ;
247 -> 248 ;
249 [label="gini = 0.0\nsamples = 1\nvalue = [0, 1]\nclass = 0", fillcolor="#399de5"] ;
247 -> 249 ;
250 [label="bmi <= 0.219\ngini = 0.12\nsamples = 47\nvalue = [44, 3]\nclass = 1", fillcolor="#e78a46"] ;
238 -> 250 ;
251 [label="gini = 0.0\nsamples = 26\nvalue = [26, 0]\nclass = 1", fillcolor="#e58139"] ;
250 -> 251 ;
252 [label="bmi <= 0.225\ngini = 0.245\nsamples = 21\nvalue = [18, 3]\nclass = 1", fillcolor="#e9965a"] ;
250 -> 252 ;
253 [label="gini = 0.0\nsamples = 1\nvalue = [0, 1]\nclass = 0", fillcolor="#399de5"] ;
252 -> 253 ;
254 [label="work_type <= 2.5\ngini = 0.18\nsamples = 20\nvalue = [18, 2]\nclass = 1", fillcolor="#e88f4f"] ;
252 -> 254 ;
255 [label="gini = 0.0\nsamples = 12\nvalue = [12, 0]\nclass = 1", fillcolor="#e58139"] ;
254 -> 255 ;
256 [label="avg_glucose_level <= 0.65\ngini = 0.375\nsamples = 8\nvalue = [6, 2]\nclass = 1", fillcolor="#eeab7b"] ;
254 -> 256 ;
257 [label="age <= 0.921\ngini = 0.444\nsamples = 3\nvalue = [1, 2]\nclass = 0", fillcolor="#9ccef2"] ;
256 -> 257 ;
258 [label="gini = 0.0\nsamples = 2\nvalue = [0, 2]\nclass = 0", fillcolor="#399de5"] ;
257 -> 258 ;
259 [label="gini = 0.0\nsamples = 1\nvalue = [1, 0]\nclass = 1", fillcolor="#e58139"] ;
257 -> 259 ;
260 [label="gini = 0.0\nsamples = 5\nvalue = [5, 0]\nclass = 1", fillcolor="#e58139"] ;
256 -> 260 ;
261 [label="age <= 0.957\ngini = 0.408\nsamples = 28\nvalue = [20, 8]\nclass = 1", fillcolor="#efb388"] ;
237 -> 261 ;
262 [label="work_type <= 1.0\ngini = 0.208\nsamples = 17\nvalue = [15, 2]\nclass = 1", fillcolor="#e89253"] ;
261 -> 262 ;
263 [label="gini = 0.0\nsamples = 2\nvalue = [0, 2]\nclass = 0", fillcolor="#399de5"] ;
262 -> 263 ;
264 [label="gini = 0.0\nsamples = 15\nvalue = [15, 0]\nclass = 1", fillcolor="#e58139"] ;
262 -> 264 ;
265 [label="smoking_status <= 2.5\ngini = 0.496\nsamples = 11\nvalue = [5, 6]\nclass = 0", fillcolor="#deeffb"] ;
261 -> 265 ;
266 [label="id <= 54101.5\ngini = 0.469\nsamples = 8\nvalue = [5, 3]\nclass = 1", fillcolor="#f5cdb0"] ;
265 -> 266 ;
267 [label="gini = 0.0\nsamples = 3\nvalue = [3, 0]\nclass = 1", fillcolor="#e58139"] ;
266 -> 267 ;
268 [label="bmi <= 0.199\ngini = 0.48\nsamples = 5\nvalue = [2, 3]\nclass = 0", fillcolor="#bddef6"] ;
266 -> 268 ;
269 [label="age <= 0.976\ngini = 0.444\nsamples = 3\nvalue = [2, 1]\nclass = 1", fillcolor="#f2c09c"] ;
268 -> 269 ;
270 [label="gini = 0.0\nsamples = 1\nvalue = [0, 1]\nclass = 0", fillcolor="#399de5"] ;
269 -> 270 ;
271 [label="gini = 0.0\nsamples = 2\nvalue = [2, 0]\nclass = 1", fillcolor="#e58139"] ;
269 -> 271 ;
272 [label="gini = 0.0\nsamples = 2\nvalue = [0, 2]\nclass = 0", fillcolor="#399de5"] ;
268 -> 272 ;
273 [label="gini = 0.0\nsamples = 3\nvalue = [0, 3]\nclass = 0", fillcolor="#399de5"] ;
265 -> 273 ;
274 [label="avg_glucose_level <= 0.8\ngini = 0.484\nsamples = 17\nvalue = [10, 7]\nclass = 1", fillcolor="#f7d9c4"] ;
234 -> 274 ;
275 [label="ever_married <= 0.5\ngini = 0.278\nsamples = 12\nvalue = [10, 2]\nclass = 1", fillcolor="#ea9a61"] ;
274 -> 275 ;
276 [label="gini = 0.0\nsamples = 1\nvalue = [0, 1]\nclass = 0", fillcolor="#399de5"] ;
275 -> 276 ;
277 [label="bmi <= 0.309\ngini = 0.165\nsamples = 11\nvalue = [10, 1]\nclass = 1", fillcolor="#e88e4d"] ;
275 -> 277 ;
278 [label="smoking_status <= 1.5\ngini = 0.5\nsamples = 2\nvalue = [1, 1]\nclass = 1", fillcolor="#ffffff"] ;
277 -> 278 ;
279 [label="gini = 0.0\nsamples = 1\nvalue = [1, 0]\nclass = 1", fillcolor="#e58139"] ;
278 -> 279 ;
280 [label="gini = 0.0\nsamples = 1\nvalue = [0, 1]\nclass = 0", fillcolor="#399de5"] ;
278 -> 280 ;
281 [label="gini = 0.0\nsamples = 9\nvalue = [9, 0]\nclass = 1", fillcolor="#e58139"] ;
277 -> 281 ;
282 [label="gini = 0.0\nsamples = 5\nvalue = [0, 5]\nclass = 0", fillcolor="#399de5"] ;
274 -> 282 ;
}